{"learner":{"attributes":{"scikit_learn":"{\"_estimator_type\": \"classifier\"}"},"feature_names":[],"feature_types":[],"gradient_booster":{"model":{"cats":{"enc":[],"feature_segments":[],"sorted_idx":[]},"gbtree_model_param":{"num_parallel_tree":"1","num_trees":"200"},"iteration_indptr":[0,1,2,3,4,5,6,7,8,9,10,11,12,13,14,15,16,17,18,19,20,21,22,23,24,25,26,27,28,29,30,31,32,33,34,35,36,37,38,39,40,41,42,43,44,45,46,47,48,49,50,51,52,53,54,55,56,57,58,59,60,61,62,63,64,65,66,67,68,69,70,71,72,73,74,75,76,77,78,79,80,81,82,83,84,85,86,87,88,89,90,91,92,93,94,95,96,97,98,99,100,101,102,103,104,105,106,107,108,109,110,111,112,113,114,115,116,117,118,119,120,121,122,123,124,125,126,127,128,129,130,131,132,133,134,135,136,137,138,139,140,141,142,143,144,145,146,147,148,149,150,151,152,153,154,155,156,157,158,159,160,161,162,163,164,165,166,167,168,169,170,171,172,173,174,175,176,177,178,179,180,181,182,183,184,185,186,187,188,189,190,191,192,193,194,195,196,197,198,199,200],"tree_info":[0,0,0,0,0,0,0,0,0,0,0,0,0,0,0,0,0,0,0,0,0,0,0,0,0,0,0,0,0,0,0,0,0,0,0,0,0,0,0,0,0,0,0,0,0,0,0,0,0,0,0,0,0,0,0,0,0,0,0,0,0,0,0,0,0,0,0,0,0,0,0,0,0,0,0,0,0,0,0,0,0,0,0,0,0,0,0,0,0,0,0,0,0,0,0,0,0,0,0,0,0,0,0,0,0,0,0,0,0,0,0,0,0,0,0,0,0,0,0,0,0,0,0,0,0,0,0,0,0,0,0,0,0,0,0,0,0,0,0,0,0,0,0,0,0,0,0,0,0,0,0,0,0,0,0,0,0,0,0,0,0,0,0,0,0,0,0,0,0,0,0,0,0,0,0,0,0,0,0,0,0,0,0,0,0,0,0,0,0,0,0,0,0,0,0,0,0,0,0,0],"trees":[{"base_weights":[2.6744304E-3,-5.0556076E-1,2.2447248E0,-6.8281317E-1,1.8111199E0,3.8260067E0,7.15857E-1,-8.590738E-1,5.528007E-1,2.9429264E0,-7.998426E-2,6.7109075E0,2.031145E0,3.298677E0,-9.593932E-2,-9.0496075E-1,3.9911665E-2,2.7774897E0,-4.7554758E-1,-6.541046E-2,3.3908708E0,1.1402144E-1,-4.7238243E-1,-5.6443006E-2,7.372195E-1,-1.6687834E-1,3.0740397E0,1.20062426E-1,3.5867617E0,-5.4597205E-1,1.2552598E0,-4.009972E-1,-9.9045604E-1,-3.8829705E-1,6.03462E-1,5.0384374E0,2.1306223E-1,-8.614047E-1,-9.5083445E-2,6.6786253E-1,1.9499366E0,-7.4501514E-1,2.0434473E-1,2.1262293E-1,-9.361965E-2,2.3997674E0,5.381565E-1,3.846077E-1,1.1966493E-1,-7.3693025E-1,-4.76704E-2,4.3245944E-1,2.413858E-1,-4.5728754E-2,7.4793726E-2,-9.990139E-2,3.952355E-2,6.9036156E-2,-6.6998884E-2,1.2470173E-1,-4.4162344E-2,6.250677E-1,5.374671E-2,-7.2621614E-2,7.410984E-2,-9.905669E-2,-1.5378952E-2,-7.528477E-2,3.288514E-2,-4.1638806E-2,3.1804165E-1,-8.701024E-2,-8.459731E-3,-1.18129505E-2,4.484142E-2,2.7599367E-1,-6.278543E-2,-4.670001E-2,-8.816825E-2,-8.896886E-2,1.4100058E-1,8.491822E-2,-3.422123E-2],"categories":[],"categories_nodes":[],"categories_segments":[],"categories_sizes":[],"default_left":[0,0,0,0,0,0,0,0,0,0,0,0,0,0,0,0,0,0,0,0,0,0,0,0,0,0,0,0,0,0,0,0,0,0,0,0,0,0,0,0,0,0,0,0,0,0,0,0,0,0,0,0,0,0,0,0,0,0,0,0,0,0,0,0,0,0,0,0,0,0,0,0,0,0,0,0,0,0,0,0,0,0,0],"id":0,"left_children":[1,3,5,7,9,11,13,15,17,19,21,23,25,27,29,31,33,35,37,-1,39,-1,41,-1,-1,43,45,-1,47,49,51,53,55,57,59,61,63,65,67,-1,69,71,73,-1,-1,75,-1,-1,-1,77,79,81,-1,-1,-1,-1,-1,-1,-1,-1,-1,-1,-1,-1,-1,-1,-1,-1,-1,-1,-1,-1,-1,-1,-1,-1,-1,-1,-1,-1,-1,-1,-1],"loss_changes":[4.7052536E2,1.3946732E2,1.8173624E2,6.873598E1,5.2029785E1,1.7940417E2,8.424023E1,1.1367508E1,9.222948E1,2.6652954E1,5.3428516E0,7.0862854E1,5.648121E1,1.49617E0,1.9794937E1,1.0865234E1,3.6846256E0,7.260705E1,4.0329175E0,0E0,5.16306E1,0E0,1.6834499E0,0E0,0E0,1.752413E1,1.2929718E1,0E0,3.1750488E-1,2.2743855E0,6.7300262E0,2.902626E0,3.036911E0,3.116037E0,4.966027E0,3.324852E1,4.009245E0,1.108202E0,4.4964876E0,0E0,3.306511E1,4.3289018E-1,3.023212E-1,0E0,0E0,1.7717995E1,0E0,0E0,0E0,2.7116108E-1,1.0820052E1,2.2232382E0,0E0,0E0,0E0,0E0,0E0,0E0,0E0,0E0,0E0,0E0,0E0,0E0,0E0,0E0,0E0,0E0,0E0,0E0,0E0,0E0,0E0,0E0,0E0,0E0,0E0,0E0,0E0,0E0,0E0,0E0,0E0],"parents":[2147483647,0,0,1,1,2,2,3,3,4,4,5,5,6,6,7,7,8,8,9,9,10,10,11,11,12,12,13,13,14,14,15,15,16,16,17,17,18,18,20,20,22,22,25,25,26,26,28,28,29,29,30,30,31,31,32,32,33,33,34,34,35,35,36,36,37,37,38,38,40,40,41,41,42,42,45,45,49,49,50,50,51,51],"right_children":[2,4,6,8,10,12,14,16,18,20,22,24,26,28,30,32,34,36,38,-1,40,-1,42,-1,-1,44,46,-1,48,50,52,54,56,58,60,62,64,66,68,-1,70,72,74,-1,-1,76,-1,-1,-1,78,80,82,-1,-1,-1,-1,-1,-1,-1,-1,-1,-1,-1,-1,-1,-1,-1,-1,-1,-1,-1,-1,-1,-1,-1,-1,-1,-1,-1,-1,-1,-1,-1],"split_conditions":[2.0052816E-1,1.9481234E-1,2.0701966E0,-6.305209E-2,2.0701966E0,-7.6225734E-1,-1.097472E0,-6.5242365E-2,-6.0456866E-1,-1.3647442E0,-1.2954888E0,6.846802E-1,2.4592187E-1,2.0337096E-1,1.080714E0,-1.1634775E0,-6.0934514E-2,5.526689E-1,-6.559105E-2,-6.541046E-2,-7.6225734E-1,1.1402144E-1,9.891528E-1,-5.6443006E-2,7.372195E-1,-6.9967814E-2,-2.3939867E-1,1.20062426E-1,4.4528565E0,1.7951512E0,1.7951512E0,-6.9967814E-2,4.6515763E-1,-1.2294831E0,1.1711909E0,2.0701966E0,-1.4871593E0,-6.5242365E-2,5.68704E-1,6.6786253E-1,5.68704E-1,1.0817311E0,1.9978328E-1,2.1262293E-1,-9.361965E-2,-3.7140995E-1,5.381565E-1,3.846077E-1,1.1966493E-1,4.69794E-1,-2.3939867E-1,1.0108225E0,2.413858E-1,-4.5728754E-2,7.4793726E-2,-9.990139E-2,3.952355E-2,6.9036156E-2,-6.6998884E-2,1.2470173E-1,-4.4162344E-2,6.250677E-1,5.374671E-2,-7.2621614E-2,7.410984E-2,-9.905669E-2,-1.5378952E-2,-7.528477E-2,3.288514E-2,-4.1638806E-2,3.1804165E-1,-8.701024E-2,-8.459731E-3,-1.18129505E-2,4.484142E-2,2.7599367E-1,-6.278543E-2,-4.670001E-2,-8.816825E-2,-8.896886E-2,1.4100058E-1,8.491822E-2,-3.422123E-2],"split_indices":[1,0,9,4,9,12,10,1,12,12,10,10,12,4,10,10,3,10,2,0,12,0,0,0,0,0,10,0,1,1,1,0,2,10,12,9,12,1,12,0,12,12,2,0,0,10,0,0,0,4,10,3,0,0,0,0,0,0,0,0,0,0,0,0,0,0,0,0,0,0,0,0,0,0,0,0,0,0,0,0,0,0,0],"split_type":[0,0,0,0,0,0,0,0,0,0,0,0,0,0,0,0,0,0,0,0,0,0,0,0,0,0,0,0,0,0,0,0,0,0,0,0,0,0,0,0,0,0,0,0,0,0,0,0,0,0,0,0,0,0,0,0,0,0,0,0,0,0,0,0,0,0,0,0,0,0,0,0,0,0,0,0,0,0,0,0,0,0,0],"sum_hessian":[4.1093076E2,3.356248E2,7.530599E1,3.124259E2,2.319887E1,3.6279854E1,3.902614E1,2.7368884E2,3.8737053E1,1.4165042E1,9.033828E0,1.2864171E1,2.3415682E1,8.600204E0,3.0425932E1,2.6039105E2,1.3297795E1,1.1707841E1,2.7029213E1,1.5176831E0,1.2647359E1,1.7344949E0,7.299333E0,1.0840594E0,1.1780111E1,7.8052273E0,1.5610455E1,1.6622244E0,6.9379797E0,2.3271141E1,7.154792E0,3.8592514E1,2.2179855E2,7.732957E0,5.564838E0,5.709379E0,5.9984617E0,1.2791901E1,1.4237313E1,2.7462838E0,9.901075E0,5.131214E0,2.1681187E0,1.5176831E0,6.2875443E0,1.3659148E1,1.9513068E0,5.709379E0,1.2286006E0,1.6477703E1,6.793439E0,4.986673E0,2.1681187E0,3.7363914E1,1.2286006E0,2.207145E2,1.0840594E0,1.3008713E0,6.4320855E0,3.3244488E0,2.2403893E0,4.191696E0,1.5176831E0,2.0235775E0,3.9748843E0,1.047924E1,2.31266E0,5.2757554E0,8.961557E0,3.613531E0,6.2875443E0,4.047155E0,1.0840594E0,1.15633E0,1.0117887E0,1.2286006E1,1.3731419E0,7.227062E0,9.25064E0,4.5530496E0,2.2403893E0,3.1799076E0,1.8067656E0],"tree_param":{"num_deleted":"0","num_feature":"14","num_nodes":"83","size_leaf_vector":"1"}},{"base_weights":[-1.6470397E-2,-4.9759942E-1,1.6893039E0,-6.4517355E-1,1.7233151E0,2.5304425E0,6.412965E-1,-7.7113104E-1,8.774642E-1,2.9150505E0,8.986046E-1,2.828937E0,-3.5793814E-1,-3.1447855E-1,2.2591991E0,-8.400807E-1,-1.0110312E-1,2.5343826E0,-3.2676548E-1,-6.637046E-2,3.9158404E0,1.4125514E0,-7.967838E-2,-7.671223E-2,3.048033E0,-8.364769E-2,8.059313E-2,6.93367E-1,-5.8386403E-1,2.1930206E-1,2.6966455E0,-4.9889836E-1,-9.522962E-1,8.4441113E-1,-3.3501628E-1,3.5617716E0,-7.503479E-2,-5.859661E-1,2.2642154E-1,4.3616936E-1,1.1717313E-1,5.4439E-1,2.5366506E-1,1.7772938E0,3.725293E0,-4.3842587E-1,1.4314626E0,-8.79846E-1,4.491786E-2,-6.2334806E-2,9.0245046E-2,2.8479728E-1,7.152445E-2,-5.6295116E-2,1.8691307E-2,-9.898359E-2,-5.436029E-3,-7.353281E-2,1.9816206E-1,-5.4021068E-2,4.508548E-2,3.906361E-1,1.0612024E-1,-9.3421064E-2,2.46619E-2,6.62189E-2,-6.2203504E-2,1.2229677E-1,-1.808365E-2,-6.4925E-2,2.055075E-1,2.1824236E-1,4.2204213E-1,-5.704826E-2,-9.797121E-3,4.468183E-2,1.6174518E-1,-3.0289495E-2,-9.9469334E-2,1.425405E-1,-8.795526E-2],"categories":[],"categories_nodes":[],"categories_segments":[],"categories_sizes":[],"default_left":[0,0,0,0,0,0,0,0,0,0,0,0,0,0,0,0,0,0,0,0,0,0,0,0,0,0,0,0,0,0,0,0,0,0,0,0,0,0,0,0,0,0,0,0,0,0,0,0,0,0,0,0,0,0,0,0,0,0,0,0,0,0,0,0,0,0,0,0,0,0,0,0,0,0,0,0,0,0,0,0,0],"id":1,"left_children":[1,3,5,7,9,11,13,15,17,19,21,23,25,27,29,31,33,35,37,-1,39,41,-1,-1,43,-1,-1,45,47,49,51,53,55,57,59,61,-1,63,65,-1,-1,67,-1,69,71,73,75,77,79,-1,-1,-1,-1,-1,-1,-1,-1,-1,-1,-1,-1,-1,-1,-1,-1,-1,-1,-1,-1,-1,-1,-1,-1,-1,-1,-1,-1,-1,-1,-1,-1],"loss_changes":[3.4176276E2,1.0756049E2,7.914087E1,5.9225143E1,1.7537498E1,4.454004E1,6.586211E1,1.2965408E1,4.830031E1,3.1045212E1,1.2946613E1,3.847821E1,3.8022377E0,7.834064E0,1.3479805E1,9.32579E0,6.3636694E0,3.685141E1,2.2352781E0,0E0,2.6602707E0,9.130791E0,0E0,0E0,3.0761505E1,0E0,0E0,5.8307195E0,4.159067E0,2.7920244E0,1.8296661E0,2.9806728E0,6.402466E0,1.1763367E1,3.9132752E0,2.652214E0,0E0,3.2063534E0,2.4084282E0,0E0,0E0,3.8386438E0,0E0,1.2802494E1,1.1737946E1,8.906257E-2,1.0637283E-2,6.992016E-1,1.1509521E1,0E0,0E0,0E0,0E0,0E0,0E0,0E0,0E0,0E0,0E0,0E0,0E0,0E0,0E0,0E0,0E0,0E0,0E0,0E0,0E0,0E0,0E0,0E0,0E0,0E0,0E0,0E0,0E0,0E0,0E0,0E0,0E0],"parents":[2147483647,0,0,1,1,2,2,3,3,4,4,5,5,6,6,7,7,8,8,9,9,10,10,11,11,12,12,13,13,14,14,15,15,16,16,17,17,18,18,20,20,21,21,24,24,27,27,28,28,29,29,30,30,31,31,32,32,33,33,34,34,35,35,37,37,38,38,41,41,43,43,44,44,45,45,46,46,47,47,48,48],"right_children":[2,4,6,8,10,12,14,16,18,20,22,24,26,28,30,32,34,36,38,-1,40,42,-1,-1,44,-1,-1,46,48,50,52,54,56,58,60,62,-1,64,66,-1,-1,68,-1,70,72,74,76,78,80,-1,-1,-1,-1,-1,-1,-1,-1,-1,-1,-1,-1,-1,-1,-1,-1,-1,-1,-1,-1,-1,-1,-1,-1,-1,-1,-1,-1,-1,-1,-1,-1],"split_conditions":[2.0052816E-1,4.595925E-1,2.0701966E0,2.0337096E-1,-7.6225734E-1,1.2249622E0,1.0327497E0,-6.559105E-2,-6.0456866E-1,-1.4357141E0,1.24170184E-1,-1.3302017E0,-4.725271E-1,-1.2752844E0,-4.394752E-1,-6.74658E-1,-1.0684278E0,2.0701966E0,1.0817311E0,-6.637046E-2,2.0701966E0,-6.74658E-1,-7.967838E-2,-7.671223E-2,-1.4210588E-1,-8.364769E-2,8.059313E-2,4.595925E-1,1.8146403E0,1.253933E0,5.7551956E0,-6.9967814E-2,-6.305209E-2,-1.3302017E0,1.2936059E0,1.8019093E0,-7.503479E-2,-6.5242365E-2,2.0701966E0,4.3616936E-1,1.1717313E-1,8.5281086E-1,2.5366506E-1,-8.1515884E-1,-6.559105E-2,4.6629867E-1,-1.4871593E0,-6.305209E-2,1.1711909E0,-6.2334806E-2,9.0245046E-2,2.8479728E-1,7.152445E-2,-5.6295116E-2,1.8691307E-2,-9.898359E-2,-5.436029E-3,-7.353281E-2,1.9816206E-1,-5.4021068E-2,4.508548E-2,3.906361E-1,1.0612024E-1,-9.3421064E-2,2.46619E-2,6.62189E-2,-6.2203504E-2,1.2229677E-1,-1.808365E-2,-6.4925E-2,2.055075E-1,2.1824236E-1,4.2204213E-1,-5.704826E-2,-9.797121E-3,4.468183E-2,1.6174518E-1,-3.0289495E-2,-9.9469334E-2,1.425405E-1,-8.795526E-2],"split_indices":[1,0,9,4,12,13,13,2,12,12,11,13,5,12,12,11,13,9,12,0,9,11,0,0,11,0,0,0,3,0,0,0,4,13,12,4,0,1,9,0,0,12,0,13,2,1,12,4,12,0,0,0,0,0,0,0,0,0,0,0,0,0,0,0,0,0,0,0,0,0,0,0,0,0,0,0,0,0,0,0,0],"split_type":[0,0,0,0,0,0,0,0,0,0,0,0,0,0,0,0,0,0,0,0,0,0,0,0,0,0,0,0,0,0,0,0,0,0,0,0,0,0,0,0,0,0,0,0,0,0,0,0,0,0,0,0,0,0,0,0,0,0,0,0,0,0,0,0,0,0,0,0,0,0,0,0,0,0,0,0,0,0,0,0,0],"sum_hessian":[4.1440536E2,3.2378668E2,9.0618675E1,3.042777E2,1.9508974E1,4.948617E1,4.1132504E1,2.8148584E2,2.2791868E1,6.9423714E0,1.2566604E1,4.4869766E1,4.6164064E0,2.6363756E1,1.4768747E1,2.5499194E2,2.6493902E1,9.127975E0,1.3663892E1,1.5907564E0,5.351615E0,9.771315E0,2.7952883E0,2.4331276E0,4.2436638E1,3.4706883E0,1.1457179E0,5.228523E0,2.1135233E1,2.8729506E0,1.1895797E1,6.445809E1,1.9053384E2,4.736853E0,2.175705E1,6.8889318E0,2.239044E0,9.263938E0,4.399954E0,4.0965476E0,1.2550675E0,6.3507833E0,3.4205315E0,1.6013966E1,2.6422674E1,2.2241004E0,3.0044227E0,1.40991535E1,7.036079E0,1.3255038E0,1.5474466E0,1.0645412E1,1.2503844E0,5.9115982E1,5.342113E0,1.8278967E2,7.7441754E0,2.1305797E0,2.6062737E0,1.7500252E1,4.256797E0,5.560485E0,1.328447E0,6.445799E0,2.8181386E0,3.051989E0,1.347965E0,2.9263446E0,3.424439E0,1.5075518E0,1.4506414E1,7.73316E0,1.8689514E1,1.1156924E0,1.1084079E0,1.0179083E0,1.9865142E0,2.9444883E0,1.1154665E1,2.6046956E0,4.431383E0],"tree_param":{"num_deleted":"0","num_feature":"14","num_nodes":"81","size_leaf_vector":"1"}},{"base_weights":[3.2260522E-2,-3.9661556E-1,1.3253946E0,-6.204947E-1,6.535047E-1,1.8634756E0,5.4938364E-1,-6.553841E-1,5.3526014E-1,2.06161E0,1.0677424E-1,2.0599968E0,-8.4754266E-2,2.1769026E-1,-2.0465055E-1,-5.366477E-1,-9.1463274E-1,1.17164E0,-7.513973E-2,-7.836949E-2,2.7305677E0,-2.8288254E-1,9.3463236E-1,-8.027989E-2,2.2304897E0,-6.8467546E-1,7.0018154E-1,-6.8062025E-1,1.0931542E0,-9.4812775E-1,-3.0129673E-2,-3.1972907E-2,1.8848471E-1,3.3411372E0,3.0712172E-1,-4.4547576E-1,2.2526915E-1,2.1119149E-1,3.3078372E-1,1.0971798E0,2.5020096E0,-9.307631E-1,-9.9180706E-2,1.2672987E0,-4.1219476E-1,-4.3958176E-2,-9.609743E-2,3.9550748E-2,1.353929E-1,-9.8174505E-2,-4.5586385E-2,-6.271102E-2,5.7192743E-2,3.71542E-1,5.7624795E-2,9.5156945E-2,-5.8189638E-2,-9.542367E-3,-6.906069E-2,-3.845385E-2,1.432072E-1,-2.0241557E-2,1.1619772E-1,3.0056804E-2,3.1330138E-1,2.592501E-1,3.15831E-2,-1.2295215E-2,-9.936889E-2,-8.56721E-2,1.0820092E-1,-6.0033496E-2,1.705766E-1,-7.808342E-2,3.9994806E-2],"categories":[],"categories_nodes":[],"categories_segments":[],"categories_sizes":[],"default_left":[0,0,0,0,0,0,0,0,0,0,0,0,0,0,0,0,0,0,0,0,0,0,0,0,0,0,0,0,0,0,0,0,0,0,0,0,0,0,0,0,0,0,0,0,0,0,0,0,0,0,0,0,0,0,0,0,0,0,0,0,0,0,0,0,0,0,0,0,0,0,0,0,0,0,0],"id":2,"left_children":[1,3,5,7,9,11,13,15,17,19,21,23,-1,-1,25,27,29,31,-1,-1,33,35,37,-1,39,41,43,45,47,49,51,-1,-1,53,55,57,59,-1,61,63,65,67,69,71,73,-1,-1,-1,-1,-1,-1,-1,-1,-1,-1,-1,-1,-1,-1,-1,-1,-1,-1,-1,-1,-1,-1,-1,-1,-1,-1,-1,-1,-1,-1],"loss_changes":[2.2919814E2,7.338104E1,4.195195E1,1.0688492E1,4.214788E1,3.3904312E1,5.390434E1,7.1833496E0,7.4822063E0,3.1332771E1,1.3392297E1,2.9402725E1,0E0,0E0,1.3806458E1,4.143432E1,2.2495499E0,6.7562604E0,0E0,0E0,1.7678177E1,2.4500854E0,8.725799E0,0E0,1.3765991E1,2.8690758E0,7.5437016E0,1.03864975E1,2.0950203E0,7.779846E-1,1.738272E0,0E0,0E0,8.203049E0,2.6420696E0,1.8117185E0,6.1128235E0,0E0,4.6441784E0,1.8765434E1,7.590027E0,6.073561E-1,7.3709264E0,7.261677E0,1.6633862E0,0E0,0E0,0E0,0E0,0E0,0E0,0E0,0E0,0E0,0E0,0E0,0E0,0E0,0E0,0E0,0E0,0E0,0E0,0E0,0E0,0E0,0E0,0E0,0E0,0E0,0E0,0E0,0E0,0E0,0E0],"parents":[2147483647,0,0,1,1,2,2,3,3,4,4,5,5,6,6,7,7,8,8,9,9,10,10,11,11,14,14,15,15,16,16,17,17,20,20,21,21,22,22,24,24,25,25,26,26,27,27,28,28,29,29,30,30,33,33,34,34,35,35,36,36,38,38,39,39,40,40,41,41,42,42,43,43,44,44],"right_children":[2,4,6,8,10,12,14,16,18,20,22,24,-1,-1,26,28,30,32,-1,-1,34,36,38,-1,40,42,44,46,48,50,52,-1,-1,54,56,58,60,-1,62,64,66,68,70,72,74,-1,-1,-1,-1,-1,-1,-1,-1,-1,-1,-1,-1,-1,-1,-1,-1,-1,-1,-1,-1,-1,-1,-1,-1,-1,-1,-1,-1,-1,-1],"split_conditions":[2.0052816E-1,-6.0934514E-2,2.0701966E0,1.9978328E-1,-1.0684278E0,1.5427535E0,-1.097472E0,6.186746E-1,2.0701966E0,-1.3302017E0,-1.5842168E-1,-1.3302017E0,-8.4754266E-2,2.1769026E-1,1.0147084E0,4.866633E-1,-6.559105E-2,1.5134285E-1,-7.513973E-2,-7.836949E-2,2.0701966E0,4.6515763E-1,-4.725271E-1,-8.027989E-2,-7.014381E-1,1.7951512E0,-2.6711363E-1,-5.034212E-1,-4.3015155E-1,2.0701966E0,-6.5242365E-2,-3.1972907E-2,1.8848471E-1,1.5467011E0,-3.8745114E-1,3.1805772E-1,1.1467197E0,2.1119149E-1,-6.5242365E-2,3.8762602E-1,2.0825796E0,-1.3806258E0,1.2321033E0,-5.427254E-1,1.2612807E0,-4.3958176E-2,-9.609743E-2,3.9550748E-2,1.353929E-1,-9.8174505E-2,-4.5586385E-2,-6.271102E-2,5.7192743E-2,3.71542E-1,5.7624795E-2,9.5156945E-2,-5.8189638E-2,-9.542367E-3,-6.906069E-2,-3.845385E-2,1.432072E-1,-2.0241557E-2,1.1619772E-1,3.0056804E-2,3.1330138E-1,2.592501E-1,3.15831E-2,-1.2295215E-2,-9.936889E-2,-8.56721E-2,1.0820092E-1,-6.0033496E-2,1.705766E-1,-7.808342E-2,3.9994806E-2],"split_indices":[1,3,9,2,13,10,10,10,9,13,8,13,0,0,10,10,2,13,0,0,9,2,5,0,10,1,8,10,8,9,1,0,0,3,8,13,10,0,1,8,3,13,5,8,2,0,0,0,0,0,0,0,0,0,0,0,0,0,0,0,0,0,0,0,0,0,0,0,0,0,0,0,0,0,0],"split_type":[0,0,0,0,0,0,0,0,0,0,0,0,0,0,0,0,0,0,0,0,0,0,0,0,0,0,0,0,0,0,0,0,0,0,0,0,0,0,0,0,0,0,0,0,0,0,0,0,0,0,0,0,0,0,0,0,0,0,0,0,0,0,0,0,0,0,0,0,0,0,0,0,0,0,0],"sum_hessian":[4.1132388E2,3.0940204E2,1.01921844E2,2.5536823E2,5.4033817E1,5.9360386E1,4.256146E1,2.4830544E2,7.062794E0,1.4337294E1,3.969652E1,5.5572113E1,3.7882743E0,1.287812E1,2.9683338E1,1.7241084E2,7.5894585E1,4.7853537E0,2.2774403E0,2.6965277E0,1.1640766E1,2.7439552E1,1.2256969E1,2.9151018E0,5.265701E1,1.955335E1,1.0129989E1,1.5895183E2,1.3459013E1,7.3056114E1,2.8384748E0,1.7266021E0,3.0587516E0,8.995695E0,2.6450708E0,2.0881456E1,6.558096E0,3.3087335E0,8.9482355E0,1.1151618E1,4.150539E1,1.3351792E1,6.2015576E0,6.617136E0,3.5128522E0,8.684958E1,7.210225E1,4.346788E0,9.112226E0,6.745516E1,5.60095E0,1.404352E0,1.4341227E0,7.620343E0,1.3753515E0,1.492674E0,1.1523969E0,9.172385E0,1.1709071E1,4.809283E0,1.7488134E0,5.912149E0,3.036087E0,8.84015E0,2.3114684E0,3.9677197E1,1.8281932E0,1.1783694E0,1.2173423E1,3.9457197E0,2.255838E0,1.1879492E0,5.429187E0,2.4426572E0,1.0701948E0],"tree_param":{"num_deleted":"0","num_feature":"14","num_nodes":"75","size_leaf_vector":"1"}},{"base_weights":[-2.5280725E-2,-5.045506E-1,9.0275824E-1,-6.478198E-1,1.1170967E0,6.939015E-1,2.0611017E0,-7.00577E-1,1.0880598E0,-7.7871956E-2,1.4145954E0,9.7147304E-1,1.203304E-1,2.3539505E0,-6.869419E-2,-1.6044477E-1,-8.0513924E-1,-5.8663845E-2,1.4853204E0,-2.182545E-2,1.5532793E0,1.1624795E0,-2.9498133E-1,-4.1047055E-2,2.657288E-1,2.5728214E0,-6.082479E-2,1.3303131E-1,-2.5320786E-1,-8.536313E-1,-1.0236073E-1,2.0196214E0,2.2046096E-3,1.163665E0,2.435739E-1,-5.397623E-1,1.2936815E0,-6.7222124E-1,1.2594123E-1,-2.72501E-1,7.1213967E-1,3.0525276E-1,1.5110106E0,-3.4587424E-2,6.2235173E-2,-7.0749104E-2,-9.182589E-2,-4.8844304E-2,7.207169E-2,6.4465895E-2,2.6906323E-1,8.724943E-2,1.8970244E-1,-8.0519974E-2,5.969182E-3,-6.7855604E-2,1.3573034E-1,-8.867513E-2,-3.1676304E-2,-4.339168E-3,-9.463093E-2,-3.496551E-2,1.3045423E-1,1.8809792E-3,1.8701348E-1],"categories":[],"categories_nodes":[],"categories_segments":[],"categories_sizes":[],"default_left":[0,0,0,0,0,0,0,0,0,0,0,0,0,0,0,0,0,0,0,0,0,0,0,0,0,0,0,0,0,0,0,0,0,0,0,0,0,0,0,0,0,0,0,0,0,0,0,0,0,0,0,0,0,0,0,0,0,0,0,0,0,0,0,0,0],"id":3,"left_children":[1,3,5,7,9,11,13,15,17,-1,19,21,23,25,-1,27,29,-1,31,-1,33,35,37,39,-1,41,-1,-1,43,45,47,49,-1,51,-1,53,55,57,-1,59,61,-1,63,-1,-1,-1,-1,-1,-1,-1,-1,-1,-1,-1,-1,-1,-1,-1,-1,-1,-1,-1,-1,-1,-1],"loss_changes":[1.8148317E2,6.3229637E1,3.218976E1,2.3458641E1,1.3626083E1,1.886782E1,1.8292793E1,1.34891815E1,5.995182E0,0E0,4.7659836E0,1.9747276E1,1.6497375E1,1.3852058E1,0E0,5.91775E0,6.7888184E0,0E0,5.0437107E0,0E0,3.4032555E0,1.6310905E1,7.4787173E0,6.9266195E0,0E0,4.4740067E0,0E0,0E0,3.3659883E0,1.1317139E0,4.851716E0,2.653719E0,0E0,1.4411583E0,0E0,9.5632267E-1,9.101868E0,4.6287155E-1,0E0,4.631139E0,6.3405013E0,0E0,4.000864E0,0E0,0E0,0E0,0E0,0E0,0E0,0E0,0E0,0E0,0E0,0E0,0E0,0E0,0E0,0E0,0E0,0E0,0E0,0E0,0E0,0E0,0E0],"parents":[2147483647,0,0,1,1,2,2,3,3,4,4,5,5,6,6,7,7,8,8,10,10,11,11,12,12,13,13,15,15,16,16,18,18,20,20,21,21,22,22,23,23,25,25,28,28,29,29,30,30,31,31,33,33,35,35,36,36,37,37,39,39,40,40,42,42],"right_children":[2,4,6,8,10,12,14,16,18,-1,20,22,24,26,-1,28,30,-1,32,-1,34,36,38,40,-1,42,-1,-1,44,46,48,50,-1,52,-1,54,56,58,-1,60,62,-1,64,-1,-1,-1,-1,-1,-1,-1,-1,-1,-1,-1,-1,-1,-1,-1,-1,-1,-1,-1,-1,-1,-1],"split_conditions":[-6.0934514E-2,1.9978328E-1,3.8762602E-1,4.69794E-1,-1.2606404E0,8.5281086E-1,1.1372781E0,-1.1634775E0,-1.0684278E0,-7.7871956E-2,-1.4357141E0,1.5427535E0,6.844791E0,2.0683324E0,-6.869419E-2,-5.3496164E-1,-6.305209E-2,-5.8663845E-2,6.344334E-1,-2.182545E-2,1.2321033E0,-1.3302017E0,1.7920293E0,-1.364245E-1,2.657288E-1,8.1669146E-1,-6.082479E-2,1.3303131E-1,-6.5242365E-2,-9.1024184E-1,4.866633E-1,-3.1498984E-1,2.2046096E-3,3.8762602E-1,2.435739E-1,9.978397E-1,-1.5183296E0,-2.813471E-1,1.2594123E-1,-2.813471E-1,2.0700476E-1,3.0525276E-1,2.0337096E-1,-3.4587424E-2,6.2235173E-2,-7.0749104E-2,-9.182589E-2,-4.8844304E-2,7.207169E-2,6.4465895E-2,2.6906323E-1,8.724943E-2,1.8970244E-1,-8.0519974E-2,5.969182E-3,-6.7855604E-2,1.3573034E-1,-8.867513E-2,-3.1676304E-2,-4.339168E-3,-9.463093E-2,-3.496551E-2,1.3045423E-1,1.8809792E-3,1.8701348E-1],"split_indices":[3,2,8,4,13,12,13,10,13,0,12,10,1,4,0,8,4,0,13,0,5,13,2,8,0,10,0,0,1,12,10,8,0,8,0,1,12,8,0,8,3,0,4,0,0,0,0,0,0,0,0,0,0,0,0,0,0,0,0,0,0,0,0,0,0],"split_type":[0,0,0,0,0,0,0,0,0,0,0,0,0,0,0,0,0,0,0,0,0,0,0,0,0,0,0,0,0,0,0,0,0,0,0,0,0,0,0,0,0,0,0,0,0,0,0,0,0,0,0,0,0,0,0,0,0,0,0,0,0,0,0,0,0],"sum_hessian":[4.06004E2,2.6803714E2,1.3796687E2,2.4683066E2,2.1206465E1,1.1824549E2,1.9721375E1,2.4012903E2,6.7016377E0,2.657017E0,1.8549448E1,7.921621E1,3.9029285E1,1.7951733E1,1.7696412E0,3.9357307E1,2.0077171E2,1.1935174E0,5.5081205E0,1.4072208E0,1.7142227E1,6.890593E1,1.0310279E1,3.762007E1,1.4092157E0,1.6838984E1,1.1127493E0,1.5240443E0,3.7833263E1,1.8761177E2,1.3159946E1,3.756326E0,1.7517943E0,1.3500355E1,3.6418717E0,4.7081E0,6.419783E1,8.753423E0,1.5568566E0,2.9265116E1,8.354955E0,1.0307444E1,6.53154E0,3.475941E1,3.073854E0,6.1190582E1,1.2642119E2,9.234752E0,3.925195E0,1.8750026E0,1.8813235E0,1.12309675E1,2.2693875E0,3.025286E0,1.682814E0,1.7041721E0,6.2493656E1,4.5267305E0,4.226692E0,2.26336E1,6.631514E0,3.1388302E0,5.216124E0,1.4711449E0,5.060395E0],"tree_param":{"num_deleted":"0","num_feature":"14","num_nodes":"65","size_leaf_vector":"1"}},{"base_weights":[-2.0753506E-3,-3.9956686E-1,1.0379772E0,-6.5940875E-1,5.2165055E-1,-5.246079E-1,1.2175548E0,-7.112543E-1,5.092423E-1,1.4622232E0,-9.539184E-3,1.3038434E-1,-8.3694845E-1,1.6067986E0,6.5206206E-1,-2.0343243E-1,-8.131613E-1,-3.3468175E-1,9.0181917E-1,1.8357441E0,8.386228E-2,-4.9193814E-1,1.088902E0,-7.410172E-2,1.0823291E-1,-9.249881E-2,-2.343281E-2,1.8158774E0,-5.563176E-1,-2.9050848E-1,1.2740268E0,-2.9166108E-1,9.0059035E-2,-7.2408986E-1,-9.455197E-2,-7.105145E-2,3.659594E-2,-1.47727085E-2,1.3917848E0,2.0229218E0,-3.5524908E-3,-4.9540564E-1,6.3981044E-1,-8.085095E-1,-1.6500007E-1,1.7870367E0,9.0360835E-2,1.9371656E0,5.5779946E-1,1.144621E-2,-8.244773E-2,-5.6493634E-1,5.5213356E-1,1.4025737E0,-6.328648E-2,-5.1899668E-2,-1.2928511E-2,-8.445E-2,8.339935E-2,7.4377223E-3,1.9533181E-1,2.1116863E-1,3.7424974E-2,-1.0312285E-2,-6.360497E-2,1.1036664E-1,-1.4290451E-2,-9.9151865E-2,1.028274E-2,-3.724051E-2,2.578381E-2,2.1938936E-1,-2.4508243E-2,7.563436E-2,-7.962507E-2,1.1391401E-1,2.0920746E-1,1.2241063E-2,1.0382873E-1,3.5100147E-2,-7.341582E-2,8.449688E-2,2.0009424E-3,7.6871805E-2,1.7185901E-1],"categories":[],"categories_nodes":[],"categories_segments":[],"categories_sizes":[],"default_left":[0,0,0,0,0,0,0,0,0,0,0,0,0,0,0,0,0,0,0,0,0,0,0,0,0,0,0,0,0,0,0,0,0,0,0,0,0,0,0,0,0,0,0,0,0,0,0,0,0,0,0,0,0,0,0,0,0,0,0,0,0,0,0,0,0,0,0,0,0,0,0,0,0,0,0,0,0,0,0,0,0,0,0,0,0],"id":4,"left_children":[1,3,5,7,9,11,13,15,17,19,21,23,25,27,29,31,33,35,37,39,41,43,45,-1,-1,-1,-1,47,49,51,53,55,-1,57,-1,-1,-1,-1,59,61,-1,63,65,67,69,71,73,75,77,-1,-1,79,81,83,-1,-1,-1,-1,-1,-1,-1,-1,-1,-1,-1,-1,-1,-1,-1,-1,-1,-1,-1,-1,-1,-1,-1,-1,-1,-1,-1,-1,-1,-1,-1],"loss_changes":[1.667072E2,7.0178635E1,3.1926598E1,1.4176483E1,3.2361435E1,2.6034007E0,2.1031784E1,1.115403E1,3.7036376E0,1.188002E1,2.2986961E1,4.785336E0,2.2838879E-1,2.7571716E1,2.5331743E1,3.9535155E0,1.459137E0,1.3104963E0,3.948577E0,6.4964867E0,2.2593505E0,2.9849691E0,9.068711E0,0E0,0E0,0E0,0E0,7.1270447E0,1.1631625E0,4.414445E0,7.221115E0,1.2559879E0,0E0,2.189729E1,0E0,0E0,0E0,0E0,3.596529E0,1.6524277E0,0E0,1.2847036E-1,1.4335617E0,2.6122046E0,1.5060791E0,6.936289E0,4.4410877E0,3.6315765E0,1.1561377E0,0E0,0E0,2.4085703E0,7.4104524E-1,3.5898361E0,0E0,0E0,0E0,0E0,0E0,0E0,0E0,0E0,0E0,0E0,0E0,0E0,0E0,0E0,0E0,0E0,0E0,0E0,0E0,0E0,0E0,0E0,0E0,0E0,0E0,0E0,0E0,0E0,0E0,0E0,0E0],"parents":[2147483647,0,0,1,1,2,2,3,3,4,4,5,5,6,6,7,7,8,8,9,9,10,10,11,11,12,12,13,13,14,14,15,15,16,16,17,17,18,18,19,19,20,20,21,21,22,22,27,27,28,28,29,29,30,30,31,31,33,33,38,38,39,39,41,41,42,42,43,43,44,44,45,45,46,46,47,47,48,48,51,51,52,52,53,53],"right_children":[2,4,6,8,10,12,14,16,18,20,22,24,26,28,30,32,34,36,38,40,42,44,46,-1,-1,-1,-1,48,50,52,54,56,-1,58,-1,-1,-1,-1,60,62,-1,64,66,68,70,72,74,76,78,-1,-1,80,82,84,-1,-1,-1,-1,-1,-1,-1,-1,-1,-1,-1,-1,-1,-1,-1,-1,-1,-1,-1,-1,-1,-1,-1,-1,-1,-1,-1,-1,-1,-1,-1],"split_conditions":[1.9481234E-1,-6.0934514E-2,-9.485795E-1,1.9978328E-1,-1.0684278E0,-6.5242365E-2,2.0701966E0,-1.1634775E0,1.5134285E-1,2.0701966E0,4.6629867E-1,1.9978328E-1,2.8582332E0,1.2249622E0,9.1290134E-1,-6.9967814E-2,5.526689E-1,-6.5242365E-2,-8.99455E-1,1.7951512E0,9.0629496E-2,-6.5242365E-2,-1.1686394E0,-7.410172E-2,1.0823291E-1,-9.249881E-2,-2.343281E-2,1.7951512E0,-6.0934514E-2,1.0147084E0,1.8067759E0,-1.4275001E0,9.0059035E-2,4.866633E-1,-9.455197E-2,-7.105145E-2,3.659594E-2,-1.47727085E-2,-9.1024184E-1,-6.9967814E-2,-3.5524908E-3,-6.559105E-2,2.0700476E-1,-6.9967814E-2,1.9978328E-1,-6.9967814E-2,9.978397E-1,-7.674437E-1,1.2421608E0,1.144621E-2,-8.244773E-2,-6.0934514E-2,7.4288327E-1,7.3053193E-1,-6.328648E-2,-5.1899668E-2,-1.2928511E-2,-8.445E-2,8.339935E-2,7.4377223E-3,1.9533181E-1,2.1116863E-1,3.7424974E-2,-1.0312285E-2,-6.360497E-2,1.1036664E-1,-1.4290451E-2,-9.9151865E-2,1.028274E-2,-3.724051E-2,2.578381E-2,2.1938936E-1,-2.4508243E-2,7.563436E-2,-7.962507E-2,1.1391401E-1,2.0920746E-1,1.2241063E-2,1.0382873E-1,3.5100147E-2,-7.341582E-2,8.449688E-2,2.0009424E-3,7.6871805E-2,1.7185901E-1],"split_indices":[0,3,13,2,13,1,9,10,13,9,1,2,1,13,13,0,10,1,10,1,10,1,12,0,0,0,0,1,3,10,10,10,0,10,0,0,0,0,12,0,0,2,3,0,2,0,1,10,12,0,0,3,3,2,0,0,0,0,0,0,0,0,0,0,0,0,0,0,0,0,0,0,0,0,0,0,0,0,0,0,0,0,0,0,0],"split_type":[0,0,0,0,0,0,0,0,0,0,0,0,0,0,0,0,0,0,0,0,0,0,0,0,0,0,0,0,0,0,0,0,0,0,0,0,0,0,0,0,0,0,0,0,0,0,0,0,0,0,0,0,0,0,0,0,0,0,0,0,0,0,0,0,0,0,0,0,0,0,0,0,0,0,0,0,0,0,0,0,0,0,0,0,0],"sum_hessian":[4.0124384E2,2.907425E2,1.1050133E2,2.2699866E2,6.3743855E1,1.119214E1,9.930919E1,2.1773073E2,9.267923E0,2.2373888E1,4.1369965E1,3.8019128E0,7.390227E0,5.7730396E1,4.1578793E1,3.689121E1,1.8083952E2,2.989296E0,6.278627E0,1.7342442E1,5.031447E0,2.9129433E1,1.2240533E1,2.1006095E0,1.7013032E0,5.9814286E0,1.4087982E0,5.2788578E1,4.9418206E0,1.6741074E1,2.483772E1,3.4842564E1,2.0486453E0,1.11963554E2,6.887596E1,1.9364616E0,1.0528344E0,2.2205415E0,4.0580854E0,1.5691794E1,1.6506473E0,2.5173764E0,2.5140707E0,1.4050996E1,1.5078437E1,6.7391663E0,5.501366E0,4.7654537E1,5.1340394E0,1.5750687E0,3.3667517E0,1.2876936E1,3.8641374E0,2.3516878E1,1.3208426E0,1.3602304E1,2.1240261E1,1.0435676E2,7.6068E0,1.5512253E0,2.50686E0,1.4623618E1,1.0681764E0,1.1217693E0,1.3956071E0,1.3211035E0,1.1929672E0,1.1627959E1,2.423037E0,1.0196337E1,4.8821E0,5.548645E0,1.1905209E0,3.2254677E0,2.2758987E0,9.104679E0,3.854986E1,3.3516977E0,1.7823417E0,1.8405398E0,1.1036396E1,2.1132631E0,1.7508743E0,8.965896E0,1.45509815E1],"tree_param":{"num_deleted":"0","num_feature":"14","num_nodes":"85","size_leaf_vector":"1"}},{"base_weights":[-8.451929E-2,-4.6538755E-1,7.6958203E-1,-6.6430354E-1,2.188563E-1,1.0293169E0,1.6119558E-1,-3.984129E-1,-8.1355286E-1,-3.5550728E-1,6.420994E-1,1.1342157E0,7.6989364E-3,-9.149657E-3,2.0470638E0,-4.4863185E-1,1.2720104E-1,-8.512038E-1,-1.3516432E-1,-4.3808246E-1,8.420259E-2,1.0028895E0,-3.3091077E-1,1.434767E0,6.4392364E-1,-5.762439E-1,2.0430048E-1,-5.227679E-1,8.803231E-1,2.7550948E-1,3.538529E-2,-4.9150333E-1,1.3600303E-1,-7.271704E-1,-9.4211674E-1,3.4641752E-1,-7.920899E-2,-8.402047E-1,-6.554481E-2,-7.6002516E-2,1.2002178E0,1.7140767E-1,-8.828505E-2,8.3474916E-1,1.7932004E0,1.1929237E-1,1.4806495E0,-7.6507723E-1,1.919024E-2,-1.5648304E-1,-7.981101E-1,1.41082E0,-3.4175602E-1,-2.9098166E-2,-6.772781E-2,-9.906367E-2,-4.0434424E-2,-9.675961E-2,3.721338E-2,9.765712E-2,-2.5322398E-2,-9.745672E-2,-2.3748716E-2,-4.1536354E-2,6.6986345E-2,5.1124055E-2,1.8328686E-1,-8.0319725E-2,1.1753541E-1,-3.284128E-2,1.3780305E-1,1.8801863E-1,5.0333473E-3,7.877942E-2,-4.194255E-2,-7.864236E-2,2.0510791E-1,-2.3706868E-2,-8.702802E-2,3.1058341E-2,-7.475364E-2,-2.800492E-2,-9.828888E-2,9.854577E-3,1.991238E-1,-7.310199E-2,5.661094E-3],"categories":[],"categories_nodes":[],"categories_segments":[],"categories_sizes":[],"default_left":[0,0,0,0,0,0,0,0,0,0,0,0,0,0,0,0,0,0,0,0,0,0,0,0,0,0,0,0,0,0,0,0,0,0,0,0,0,0,0,0,0,0,0,0,0,0,0,0,0,0,0,0,0,0,0,0,0,0,0,0,0,0,0,0,0,0,0,0,0,0,0,0,0,0,0,0,0,0,0,0,0,0,0,0,0,0,0],"id":5,"left_children":[1,3,5,7,9,11,13,15,17,19,21,23,25,27,29,31,-1,33,35,37,-1,39,41,43,45,47,-1,49,51,-1,-1,53,-1,55,57,59,-1,61,63,-1,65,67,-1,69,71,73,75,77,-1,79,81,83,85,-1,-1,-1,-1,-1,-1,-1,-1,-1,-1,-1,-1,-1,-1,-1,-1,-1,-1,-1,-1,-1,-1,-1,-1,-1,-1,-1,-1,-1,-1,-1,-1,-1,-1],"loss_changes":[1.2968951E2,3.7654484E1,1.9268906E1,8.158813E0,1.5500216E1,9.208328E0,1.2220842E1,7.181842E0,3.3574295E0,3.0681581E0,1.3154442E1,1.0568764E1,1.1892346E1,1.6830143E1,2.802846E0,6.6584044E0,0E0,7.65213E-1,2.912045E0,3.868898E0,0E0,1.0267876E1,3.0990808E0,8.726814E0,1.3630796E1,1.2761405E0,0E0,2.2293205E0,9.227458E0,0E0,0E0,2.6413498E0,0E0,4.59902E0,2.732006E0,2.3279972E0,0E0,7.818146E-1,4.055231E0,0E0,9.77449E0,7.209742E0,0E0,1.2868953E1,4.285042E0,7.6843777E0,1.7175331E1,1.5196276E-1,0E0,3.3409038E0,9.7702026E-1,7.1167126E0,7.99393E-1,0E0,0E0,0E0,0E0,0E0,0E0,0E0,0E0,0E0,0E0,0E0,0E0,0E0,0E0,0E0,0E0,0E0,0E0,0E0,0E0,0E0,0E0,0E0,0E0,0E0,0E0,0E0,0E0,0E0,0E0,0E0,0E0,0E0,0E0],"parents":[2147483647,0,0,1,1,2,2,3,3,4,4,5,5,6,6,7,7,8,8,9,9,10,10,11,11,12,12,13,13,14,14,15,15,17,17,18,18,19,19,21,21,22,22,23,23,24,24,25,25,27,27,28,28,31,31,33,33,34,34,35,35,37,37,38,38,40,40,41,41,43,43,44,44,45,45,46,46,47,47,49,49,50,50,51,51,52,52],"right_children":[2,4,6,8,10,12,14,16,18,20,22,24,26,28,30,32,-1,34,36,38,-1,40,42,44,46,48,-1,50,52,-1,-1,54,-1,56,58,60,-1,62,64,-1,66,68,-1,70,72,74,76,78,-1,80,82,84,86,-1,-1,-1,-1,-1,-1,-1,-1,-1,-1,-1,-1,-1,-1,-1,-1,-1,-1,-1,-1,-1,-1,-1,-1,-1,-1,-1,-1,-1,-1,-1,-1,-1,-1],"split_conditions":[2.0052816E-1,-6.305209E-2,8.5281086E-1,-5.034212E-1,-1.7339304E-1,1.5427535E0,7.3763323E0,7.4288327E-1,-6.5242365E-2,2.3347554E0,2.0701966E0,2.0701966E0,2.0609217E0,-1.364245E-1,9.502497E0,7.3053193E-1,1.2720104E-1,-7.6225734E-1,-4.394752E-1,-4.0297857E-1,8.420259E-2,-1.4871593E0,-3.8745114E-1,2.0700476E-1,1.2612807E0,1.7920293E0,2.0430048E-1,1.1711909E0,-5.034212E-1,2.7550948E-1,3.538529E-2,-1.1634775E0,1.3600303E-1,-1.2752844E0,1.9978328E-1,7.506858E-1,-7.920899E-2,1.9978328E-1,-6.5242365E-2,-7.6002516E-2,-3.6027816E-1,-4.3791527E-1,-8.828505E-2,1.9978328E-1,2.0609217E0,-1.2294831E0,9.978397E-1,4.6515763E-1,1.919024E-2,1.2612807E0,1.9978328E-1,-6.305209E-2,7.4288327E-1,-2.9098166E-2,-6.772781E-2,-9.906367E-2,-4.0434424E-2,-9.675961E-2,3.721338E-2,9.765712E-2,-2.5322398E-2,-9.745672E-2,-2.3748716E-2,-4.1536354E-2,6.6986345E-2,5.1124055E-2,1.8328686E-1,-8.0319725E-2,1.1753541E-1,-3.284128E-2,1.3780305E-1,1.8801863E-1,5.0333473E-3,7.877942E-2,-4.194255E-2,-7.864236E-2,2.0510791E-1,-2.3706868E-2,-8.702802E-2,3.1058341E-2,-7.475364E-2,-2.800492E-2,-9.828888E-2,9.854577E-3,1.991238E-1,-7.310199E-2,5.661094E-3],"split_indices":[1,4,12,10,10,10,1,3,1,4,9,9,1,8,1,2,0,12,12,8,0,12,8,3,2,2,0,12,10,0,0,10,0,12,2,10,0,2,1,0,8,8,0,2,1,10,1,2,0,2,2,4,3,0,0,0,0,0,0,0,0,0,0,0,0,0,0,0,0,0,0,0,0,0,0,0,0,0,0,0,0,0,0,0,0,0,0],"split_type":[0,0,0,0,0,0,0,0,0,0,0,0,0,0,0,0,0,0,0,0,0,0,0,0,0,0,0,0,0,0,0,0,0,0,0,0,0,0,0,0,0,0,0,0,0,0,0,0,0,0,0,0,0,0,0,0,0,0,0,0,0,0,0,0,0,0,0,0,0,0,0,0,0,0,0,0,0,0,0,0,0,0,0,0,0,0,0],"sum_hessian":[3.965756E2,2.7458527E2,1.2199032E2,2.127624E2,6.182285E1,8.5006935E1,3.698339E1,7.7810646E1,1.3495177E2,2.6296764E1,3.5526085E1,7.699132E1,8.015614E0,3.4832237E1,2.151151E0,7.624973E1,1.560915E0,1.2761435E2,7.3374095E0,2.5193726E1,1.1030389E0,2.5893951E1,9.632133E0,4.653735E1,3.0453968E1,6.7856436E0,1.2299702E0,2.2342834E1,1.2489403E1,1.0746391E0,1.0765119E0,7.519559E1,1.0541419E0,5.778131E1,6.983304E1,4.5064616E0,2.8309476E0,1.1512076E1,1.3681649E1,2.3195665E0,2.3574385E1,5.403694E0,4.2284384E0,1.8648548E1,2.7888803E1,1.9420061E1,1.1033906E1,5.449892E0,1.3357512E0,1.02610235E1,1.2081812E1,8.601224E0,3.8881795E0,3.7396667E1,3.7798923E1,3.0676687E1,2.7104622E1,6.876369E1,1.0693548E0,1.8908284E0,2.6156332E0,8.909046E0,2.6030297E0,9.566333E0,4.1153164E0,1.215035E1,1.1424036E1,2.8433776E0,2.5603166E0,6.0630636E0,1.2585484E1,2.6488007E1,1.4007977E0,8.459817E0,1.0960244E1,2.1420503E0,8.891856E0,1.4459884E0,4.003904E0,5.9967523E0,4.2642713E0,3.837702E0,8.24411E0,2.9964035E0,5.6048203E0,1.5442126E0,2.343967E0],"tree_param":{"num_deleted":"0","num_feature":"14","num_nodes":"87","size_leaf_vector":"1"}},{"base_weights":[-3.0205106E-2,-3.4812728E-1,8.65916E-1,-5.6465465E-1,6.7242223E-1,-6.762816E-1,9.392642E-1,-6.9733864E-1,8.513075E-2,1.307526E0,1.0257182E-1,-8.0429584E-2,-1.2134611E-2,1.6220872E0,7.6459837E-1,-7.492841E-1,7.292346E-2,8.9801747E-1,-2.020432E-1,1.3945827E0,-2.2614103E-2,-5.1726574E-1,7.0162296E-1,-6.547684E-2,1.8595287E0,-8.7511174E-2,8.5735536E-1,-4.6089622E-1,-9.15175E-1,9.24928E-1,-5.8254755E-1,-7.182964E-2,1.356062E0,-9.8717526E-2,-6.9244754E-1,1.8952172E0,1.0041784E0,-3.0020047E-2,-6.9376546E-1,1.0724722E0,-2.766827E-1,6.715763E-1,2.238744E0,1.2921238E0,6.5605986E-1,4.9757384E-2,-5.0967794E-2,-9.276382E-2,-2.6904047E-2,1.1947682E-1,2.4070865E-2,1.1856384E-2,-7.613691E-2,2.9221887E-2,1.8746324E-1,-2.5396198E-2,4.366006E-2,-8.31584E-2,-7.611199E-3,2.0875083E-1,8.0855004E-2,-9.621105E-4,1.2225161E-1,-4.8959587E-2,6.8377994E-2,-8.2793586E-2,-1.6323116E-2,1.2841694E-1,-2.5996527E-2,-6.983102E-2,1.8564211E-2,1.5177839E-1,-7.568933E-3,2.4250527E-1,2.1558749E-2,9.2467345E-2,1.7721774E-1,1.4358094E-1,4.787248E-2],"categories":[],"categories_nodes":[],"categories_segments":[],"categories_sizes":[],"default_left":[0,0,0,0,0,0,0,0,0,0,0,0,0,0,0,0,0,0,0,0,0,0,0,0,0,0,0,0,0,0,0,0,0,0,0,0,0,0,0,0,0,0,0,0,0,0,0,0,0,0,0,0,0,0,0,0,0,0,0,0,0,0,0,0,0,0,0,0,0,0,0,0,0,0,0,0,0,0,0],"id":6,"left_children":[1,3,5,7,9,11,13,15,17,19,21,-1,-1,23,25,27,29,31,33,35,-1,37,39,-1,41,-1,43,45,47,49,51,-1,53,55,57,59,61,63,65,67,69,71,73,75,77,-1,-1,-1,-1,-1,-1,-1,-1,-1,-1,-1,-1,-1,-1,-1,-1,-1,-1,-1,-1,-1,-1,-1,-1,-1,-1,-1,-1,-1,-1,-1,-1,-1,-1],"loss_changes":[1.1050298E2,6.3630066E1,1.2125832E1,2.0464546E1,1.816275E1,2.713349E-1,1.0374832E1,7.9229507E0,9.75816E0,3.4962387E0,1.06601925E1,0E0,0E0,1.1460007E1,1.2833031E1,8.396011E0,7.9861007E0,9.03876E0,1.509102E0,2.5303993E0,0E0,1.2007961E0,5.5671186E0,0E0,6.342697E0,0E0,5.776806E0,3.4947968E0,6.845093E-1,8.5430956E-1,1.1121287E0,0E0,4.325775E0,2.344725E0,3.8704133E-1,1.534214E-1,3.303671E0,1.9168007E0,6.039052E-1,3.3629732E0,1.0629514E0,3.6831892E0,4.2921143E0,2.4049263E0,6.747875E0,0E0,0E0,0E0,0E0,0E0,0E0,0E0,0E0,0E0,0E0,0E0,0E0,0E0,0E0,0E0,0E0,0E0,0E0,0E0,0E0,0E0,0E0,0E0,0E0,0E0,0E0,0E0,0E0,0E0,0E0,0E0,0E0,0E0,0E0],"parents":[2147483647,0,0,1,1,2,2,3,3,4,4,5,5,6,6,7,7,8,8,9,9,10,10,13,13,14,14,15,15,16,16,17,17,18,18,19,19,21,21,22,22,24,24,26,26,27,27,28,28,29,29,30,30,32,32,33,33,34,34,35,35,36,36,37,37,38,38,39,39,40,40,41,41,42,42,43,43,44,44],"right_children":[2,4,6,8,10,12,14,16,18,20,22,-1,-1,24,26,28,30,32,34,36,-1,38,40,-1,42,-1,44,46,48,50,52,-1,54,56,58,60,62,64,66,68,70,72,74,76,78,-1,-1,-1,-1,-1,-1,-1,-1,-1,-1,-1,-1,-1,-1,-1,-1,-1,-1,-1,-1,-1,-1,-1,-1,-1,-1,-1,-1,-1,-1,-1,-1,-1,-1],"split_conditions":[4.595925E-1,2.0337096E-1,-1.2606404E0,-6.559105E-2,-6.0456866E-1,7.362171E-1,-6.5242365E-2,-6.305209E-2,-1.0684278E0,2.0683324E0,2.0052816E-1,-8.0429584E-2,-1.2134611E-2,-1.1686394E0,-8.1515884E-1,-4.0838194E-1,-7.6225734E-1,-1.3302017E0,1.2249622E0,6.567223E-1,-2.2614103E-2,4.69794E-1,1.1711909E0,-6.547684E-2,-6.74658E-1,-8.7511174E-2,-1.2752844E0,-5.3496164E-1,2.0052816E-1,6.567223E-1,-1.2606404E0,-7.182964E-2,-3.8745114E-1,7.7948076E-1,1.8835743E-1,1.5354862E0,2.0052816E-1,-2.6711363E-1,1.2936059E0,2.0609217E0,-3.1498984E-1,-4.2238784E-1,2.0482733E0,1.8835743E-1,-4.7673383E-1,4.9757384E-2,-5.0967794E-2,-9.276382E-2,-2.6904047E-2,1.1947682E-1,2.4070865E-2,1.1856384E-2,-7.613691E-2,2.9221887E-2,1.8746324E-1,-2.5396198E-2,4.366006E-2,-8.31584E-2,-7.611199E-3,2.0875083E-1,8.0855004E-2,-9.621105E-4,1.2225161E-1,-4.8959587E-2,6.8377994E-2,-8.2793586E-2,-1.6323116E-2,1.2841694E-1,-2.5996527E-2,-6.983102E-2,1.8564211E-2,1.5177839E-1,-7.568933E-3,2.4250527E-1,2.1558749E-2,9.2467345E-2,1.7721774E-1,1.4358094E-1,4.787248E-2],"split_indices":[0,4,13,2,12,4,1,4,13,4,1,0,0,12,13,11,12,13,13,11,0,4,12,0,11,0,12,8,1,11,13,0,8,13,8,4,1,8,12,1,8,8,0,8,8,0,0,0,0,0,0,0,0,0,0,0,0,0,0,0,0,0,0,0,0,0,0,0,0,0,0,0,0,0,0,0,0,0,0],"split_type":[0,0,0,0,0,0,0,0,0,0,0,0,0,0,0,0,0,0,0,0,0,0,0,0,0,0,0,0,0,0,0,0,0,0,0,0,0,0,0,0,0,0,0,0,0,0,0,0,0,0,0,0,0,0,0,0,0,0,0,0,0,0,0,0,0,0,0,0,0,0,0,0,0,0,0,0,0,0,0],"sum_hessian":[3.8581213E2,2.8523068E2,1.0058146E2,2.3567487E2,4.9555817E1,4.193339E0,9.6388115E1,1.9565051E2,4.0024353E1,2.2823877E1,2.673194E1,3.0422034E0,1.1511353E0,1.7945755E1,7.844236E1,1.8331522E2,1.2335297E1,9.893189E0,3.0131165E1,2.1683716E1,1.1401626E0,1.3205131E1,1.3526809E1,1.5287527E0,1.6417004E1,3.748251E0,7.469411E1,6.832176E1,1.1499346E2,5.1848083E0,7.150488E0,2.0590796E0,7.8341093E0,2.5879736E1,4.251429E0,7.8117857E0,1.3871929E1,3.822583E0,9.382547E0,9.738828E0,3.7879813E0,4.6430078E0,1.1773995E1,2.1923521E1,5.2770588E1,2.8632967E0,6.5458466E1,1.1238992E2,2.6035376E0,3.1832366E0,2.0015717E0,1.5216149E0,5.628873E0,3.079679E0,4.7544303E0,2.0469177E1,5.410558E0,3.1835177E0,1.0679115E0,5.8547416E0,1.9570441E0,2.6275322E0,1.1244397E1,2.516469E0,1.3061141E0,7.041265E0,2.3412821E0,8.434917E0,1.3039103E0,1.7142242E0,2.0737572E0,1.6938107E0,2.949197E0,1.0599279E1,1.1747158E0,1.4075678E1,7.8478436E0,8.462786E0,4.4307804E1],"tree_param":{"num_deleted":"0","num_feature":"14","num_nodes":"79","size_leaf_vector":"1"}},{"base_weights":[-3.3002455E-2,-3.070251E-1,6.920888E-1,-5.213963E-1,5.8002263E-1,9.860457E-1,2.9352537E-1,-6.687355E-1,1.3798076E-1,1.2793175E-3,1.080261E0,1.0911785E0,-7.977225E-2,7.939489E-1,-1.607773E-1,-6.985731E-1,6.60059E-1,4.1352662E-1,-7.1303207E-1,-3.970533E-1,7.2785646E-1,1.2808777E0,7.714448E-2,1.7643918E0,9.313724E-1,9.615439E-1,-2.655169E-1,5.4310006E-1,-5.9841645E-1,-2.523834E-1,-7.981798E-1,-2.251349E-2,1.12687E0,6.644662E-1,-3.7416062E-1,-9.048907E-1,-1.8810152E-1,-8.382531E-2,-2.3291393E-1,1.2416863E0,-7.9058945E-2,1.4140164E0,3.3410633E-1,-5.70334E-1,8.9997314E-2,2.76311E-1,1.0958163E0,7.219706E-2,1.1901834E0,3.056594E-1,1.3153744E0,4.4479866E-2,-6.855572E-2,8.969264E-1,-5.2724147E-1,-7.98636E-1,3.5145882E-1,1.5151097E-1,-3.695747E-2,-8.701269E-2,-3.179507E-3,1.3844822E-1,3.538991E-2,1.1242955E-1,6.511718E-3,4.3164756E-2,-6.2842794E-2,-9.848522E-2,-2.8750816E-2,5.001238E-2,-7.36206E-2,-5.6793042E-3,-7.700183E-2,5.847594E-3,1.826515E-1,1.531267E-1,8.039708E-2,8.5255526E-2,-6.557641E-2,-1.396242E-2,-7.0435874E-2,1.7361866E-1,-3.154324E-2,-9.710816E-2,4.5038227E-2,1.287255E-1,4.825465E-3,-7.044737E-2,6.812908E-2,9.5036276E-2,1.823337E-1,2.0829063E-2,1.5427725E-1,-6.644968E-2,-1.2284745E-2,9.51328E-3,-9.250381E-2,1.411464E-1,-6.581131E-2],"categories":[],"categories_nodes":[],"categories_segments":[],"categories_sizes":[],"default_left":[0,0,0,0,0,0,0,0,0,0,0,0,0,0,0,0,0,0,0,0,0,0,0,0,0,0,0,0,0,0,0,0,0,0,0,0,0,0,0,0,0,0,0,0,0,0,0,0,0,0,0,0,0,0,0,0,0,0,0,0,0,0,0,0,0,0,0,0,0,0,0,0,0,0,0,0,0,0,0,0,0,0,0,0,0,0,0,0,0,0,0,0,0,0,0,0,0,0,0],"id":7,"left_children":[1,3,5,7,9,11,13,15,17,19,21,23,-1,25,27,29,31,33,35,37,39,41,43,45,47,49,51,53,55,57,59,-1,61,63,65,67,69,-1,71,73,-1,75,77,79,-1,-1,81,83,85,87,89,-1,-1,91,93,95,97,-1,-1,-1,-1,-1,-1,-1,-1,-1,-1,-1,-1,-1,-1,-1,-1,-1,-1,-1,-1,-1,-1,-1,-1,-1,-1,-1,-1,-1,-1,-1,-1,-1,-1,-1,-1,-1,-1,-1,-1,-1,-1],"loss_changes":[7.655116E1,5.3456207E1,1.2092339E1,2.2014366E1,1.5886286E1,1.2197235E1,1.064984E1,7.780365E0,1.0153254E1,7.9423184E0,5.8245735E0,4.5383987E0,0E0,4.195755E0,8.054174E0,7.84449E0,2.1414428E0,6.6511474E0,9.023752E-1,1.0885158E0,8.562879E0,2.6113625E0,3.6936977E0,3.585867E0,1.0710876E1,4.0948944E0,1.4430826E0,4.3144903E0,3.3136125E0,7.706383E0,8.107338E0,0E0,1.3879061E-1,6.796237E0,2.0058079E0,8.892155E-2,1.9197128E0,0E0,1.3094561E0,5.1861258E0,0E0,2.80941E-1,2.7789273E0,1.2983811E-1,0E0,0E0,7.4072323E0,5.2922688E0,4.0669746E0,3.5507655E0,5.4483604E-1,0E0,0E0,3.2339249E0,9.320688E-2,1.6105175E0,4.643053E0,0E0,0E0,0E0,0E0,0E0,0E0,0E0,0E0,0E0,0E0,0E0,0E0,0E0,0E0,0E0,0E0,0E0,0E0,0E0,0E0,0E0,0E0,0E0,0E0,0E0,0E0,0E0,0E0,0E0,0E0,0E0,0E0,0E0,0E0,0E0,0E0,0E0,0E0,0E0,0E0,0E0,0E0],"parents":[2147483647,0,0,1,1,2,2,3,3,4,4,5,5,6,6,7,7,8,8,9,9,10,10,11,11,13,13,14,14,15,15,16,16,17,17,18,18,19,19,20,20,21,21,22,22,23,23,24,24,25,25,26,26,27,27,28,28,29,29,30,30,32,32,33,33,34,34,35,35,36,36,38,38,39,39,41,41,42,42,43,43,46,46,47,47,48,48,49,49,50,50,53,53,54,54,55,55,56,56],"right_children":[2,4,6,8,10,12,14,16,18,20,22,24,-1,26,28,30,32,34,36,38,40,42,44,46,48,50,52,54,56,58,60,-1,62,64,66,68,70,-1,72,74,-1,76,78,80,-1,-1,82,84,86,88,90,-1,-1,92,94,96,98,-1,-1,-1,-1,-1,-1,-1,-1,-1,-1,-1,-1,-1,-1,-1,-1,-1,-1,-1,-1,-1,-1,-1,-1,-1,-1,-1,-1,-1,-1,-1,-1,-1,-1,-1,-1,-1,-1,-1,-1,-1,-1],"split_conditions":[4.595925E-1,2.0337096E-1,2.0701966E0,-6.5242365E-2,3.5465205E-1,1.5427535E0,-3.8745114E-1,1.9481234E-1,8.826971E-1,3.5671104E-2,2.0701966E0,-4.8190963E-1,-7.977225E-2,1.1711909E0,-1.1634775E0,-1.1634775E0,-3.1498984E-1,2.0701966E0,-1.5971562E-1,4.110153E-1,1.2690632E0,1.3447366E0,1.2787309E0,-3.7140995E-1,-4.0297857E-1,1.5187131E0,7.243727E-1,5.7551956E0,2.8582332E0,-5.3496164E-1,-6.305209E-2,-2.251349E-2,-1.364245E-1,9.7508603E-1,-1.0314662E0,7.320692E-1,1.9353323E-1,-8.382531E-2,1.3247763E0,2.0052816E-1,-7.9058945E-2,1.5354862E0,1.0026401E0,-3.8745114E-1,8.9997314E-2,2.76311E-1,-5.090826E-1,7.243727E-1,2.0482733E0,2.0052816E-1,-4.3791527E-1,4.4479866E-2,-6.855572E-2,1.5293808E0,-1.3614944E0,-1.4357141E0,1.2690632E0,1.5151097E-1,-3.695747E-2,-8.701269E-2,-3.179507E-3,1.3844822E-1,3.538991E-2,1.1242955E-1,6.511718E-3,4.3164756E-2,-6.2842794E-2,-9.848522E-2,-2.8750816E-2,5.001238E-2,-7.36206E-2,-5.6793042E-3,-7.700183E-2,5.847594E-3,1.826515E-1,1.531267E-1,8.039708E-2,8.5255526E-2,-6.557641E-2,-1.396242E-2,-7.0435874E-2,1.7361866E-1,-3.154324E-2,-9.710816E-2,4.5038227E-2,1.287255E-1,4.825465E-3,-7.044737E-2,6.812908E-2,9.5036276E-2,1.823337E-1,2.0829063E-2,1.5427725E-1,-6.644968E-2,-1.2284745E-2,9.51328E-3,-9.250381E-2,1.411464E-1,-6.581131E-2],"split_indices":[0,4,9,1,10,10,8,0,10,8,9,8,0,12,10,10,8,9,8,12,4,10,10,10,8,0,0,0,1,8,4,0,8,12,10,1,8,0,12,1,0,4,4,8,0,0,8,0,0,1,8,0,0,1,10,12,4,0,0,0,0,0,0,0,0,0,0,0,0,0,0,0,0,0,0,0,0,0,0,0,0,0,0,0,0,0,0,0,0,0,0,0,0,0,0,0,0,0,0],"split_type":[0,0,0,0,0,0,0,0,0,0,0,0,0,0,0,0,0,0,0,0,0,0,0,0,0,0,0,0,0,0,0,0,0,0,0,0,0,0,0,0,0,0,0,0,0,0,0,0,0,0,0,0,0,0,0,0,0,0,0,0,0,0,0,0,0,0,0,0,0,0,0,0,0,0,0,0,0,0,0,0,0,0,0,0,0,0,0,0,0,0,0,0,0,0,0,0,0,0,0],"sum_hessian":[3.8320718E2,2.7852505E2,1.04682144E2,2.2464719E2,5.387786E1,5.9398964E1,4.528318E1,1.8360588E2,4.104131E1,2.5443705E1,2.8434156E1,5.6459587E1,2.9393773E0,2.1192068E1,2.409111E1,1.8003748E2,3.5683978E0,3.1391323E1,9.649988E0,1.6726974E1,8.716729E0,2.346451E1,4.9696474E0,8.904961E0,4.7554626E1,1.8377405E1,2.814664E0,9.14376E0,1.4947351E1,3.3501377E1,1.465361E2,1.4108261E0,2.1575718E0,2.3925596E1,7.465727E0,6.5369473E0,3.1130404E0,3.421952E0,1.3305022E1,6.6490192E0,2.0677097E0,2.0138975E1,3.3255346E0,2.952895E0,2.0167522E0,2.3145916E0,6.590369E0,1.1304851E1,3.6249775E1,7.093066E0,1.1284338E1,1.0240262E0,1.7906379E0,6.9938107E0,2.1499486E0,1.2476674E1,2.4706767E0,1.3414192E0,3.2159958E1,1.3383638E2,1.2699723E1,1.0248847E0,1.1326871E0,1.3042975E1,1.0882621E1,1.6233845E0,5.8423424E0,5.260428E0,1.2765194E0,1.4189193E0,1.6941212E0,1.0852228E1,2.4527948E0,2.5632024E0,4.085817E0,1.5625646E1,4.51333E0,2.2734995E0,1.0520349E0,1.1853528E0,1.7675422E0,4.374941E0,2.215428E0,2.5905905E0,8.71426E0,3.3292435E1,2.9573402E0,1.685377E0,5.407689E0,8.2366085E0,3.0477295E0,4.0248294E0,2.9689815E0,1.124941E0,1.0250075E0,1.5765458E0,1.0900128E1,1.011044E0,1.4596326E0],"tree_param":{"num_deleted":"0","num_feature":"14","num_nodes":"99","size_leaf_vector":"1"}},{"base_weights":[-9.837114E-3,-3.5227883E-1,4.7233564E-1,-4.6025607E-1,6.160168E-1,7.1973264E-1,6.660201E-2,-5.592973E-1,8.770748E-2,-7.2885506E-2,7.979858E-1,8.709275E-1,-8.3795404E-1,-4.608621E-1,5.925694E-1,-1.5280038E-1,-6.974404E-1,-7.7174985E-1,4.2402798E-1,9.939696E-1,-4.6721676E-1,9.486763E-1,-9.791027E-2,-2.0253427E-2,-9.262847E-2,2.370074E-1,-6.35693E-1,6.8886507E-1,-6.7949824E-2,1.7330848E-1,-2.7780858E-1,-5.6113464E-1,-8.9912075E-1,2.2790467E-2,-9.598633E-2,1.1992837E0,1.0561691E-2,1.322652E0,-1.08971074E-1,-7.884375E-3,-6.115027E-2,4.9806547E-1,1.22311E0,3.2659727E-1,-5.379323E-1,-6.536367E-2,6.102978E-1,-8.66179E-1,1.6460755E-1,8.4619784E-1,-6.2226746E-2,-5.4691922E-2,-1.41897565E-2,-7.097466E-2,8.458083E-2,-9.344667E-2,3.5741222E-3,1.5591282E-1,5.5211685E-3,-3.1998094E-2,9.815528E-2,1.5920638E-1,5.3715713E-2,-5.760026E-2,8.74605E-2,-1.8708162E-3,9.9749915E-2,1.0615637E-1,2.0645173E-1,7.115153E-2,-3.2874826E-2,-1.506289E-2,-6.288076E-2,-4.1114166E-3,1.4133964E-1,-5.448121E-2,-9.8367736E-2,-5.1449507E-2,7.863015E-2,3.5992783E-4,9.8931454E-2,-8.024304E-2,4.1365746E-2],"categories":[],"categories_nodes":[],"categories_segments":[],"categories_sizes":[],"default_left":[0,0,0,0,0,0,0,0,0,0,0,0,0,0,0,0,0,0,0,0,0,0,0,0,0,0,0,0,0,0,0,0,0,0,0,0,0,0,0,0,0,0,0,0,0,0,0,0,0,0,0,0,0,0,0,0,0,0,0,0,0,0,0,0,0,0,0,0,0,0,0,0,0,0,0,0,0,0,0,0,0,0,0],"id":8,"left_children":[1,3,5,7,9,11,13,15,17,-1,19,21,23,25,27,29,31,33,35,37,39,41,43,-1,-1,45,47,49,-1,-1,51,53,55,-1,-1,57,59,61,63,-1,-1,65,67,69,71,-1,73,75,77,79,81,-1,-1,-1,-1,-1,-1,-1,-1,-1,-1,-1,-1,-1,-1,-1,-1,-1,-1,-1,-1,-1,-1,-1,-1,-1,-1,-1,-1,-1,-1,-1,-1],"loss_changes":[6.1814457E1,2.3169004E1,1.5558231E1,1.076754E1,6.060397E0,2.3452518E1,1.6917112E1,9.293869E0,9.315919E0,0E0,5.4723625E0,6.7543564E0,3.2011604E-1,3.8739934E0,4.201351E0,1.0793381E1,2.9224472E0,1.9301543E0,7.358563E0,6.599676E0,1.4170456E-1,9.526123E0,1.572173E0,0E0,0E0,2.6736486E0,4.6940565E0,3.4594002E0,0E0,0E0,1.4542825E0,1.6710043E1,1.6397972E0,0E0,0E0,3.2031918E0,5.451398E0,2.064188E0,2.8062162E0,0E0,0E0,8.460661E0,4.6387024E0,1.3507327E0,4.7785044E-2,0E0,2.8508816E0,1.9349957E-1,3.0887132E0,2.8790627E0,2.4188273E0,0E0,0E0,0E0,0E0,0E0,0E0,0E0,0E0,0E0,0E0,0E0,0E0,0E0,0E0,0E0,0E0,0E0,0E0,0E0,0E0,0E0,0E0,0E0,0E0,0E0,0E0,0E0,0E0,0E0,0E0,0E0,0E0],"parents":[2147483647,0,0,1,1,2,2,3,3,4,4,5,5,6,6,7,7,8,8,10,10,11,11,12,12,13,13,14,14,15,15,16,16,17,17,18,18,19,19,20,20,21,21,22,22,25,25,26,26,27,27,30,30,31,31,32,32,35,35,36,36,37,37,38,38,41,41,42,42,43,43,44,44,46,46,47,47,48,48,49,49,50,50],"right_children":[2,4,6,8,10,12,14,16,18,-1,20,22,24,26,28,30,32,34,36,38,40,42,44,-1,-1,46,48,50,-1,-1,52,54,56,-1,-1,58,60,62,64,-1,-1,66,68,70,72,-1,74,76,78,80,82,-1,-1,-1,-1,-1,-1,-1,-1,-1,-1,-1,-1,-1,-1,-1,-1,-1,-1,-1,-1,-1,-1,-1,-1,-1,-1,-1,-1,-1,-1,-1,-1],"split_conditions":[-6.0934514E-2,2.0337096E-1,2.0701966E0,-6.5242365E-2,-1.2606404E0,1.1372781E0,9.1290134E-1,-9.6546066E-1,-6.701115E-1,-7.2885506E-2,1.2945236E0,1.8019093E0,-4.7673383E-1,-6.305209E-2,1.8067759E0,-5.3496164E-1,6.186746E-1,-1.7339304E-1,-1.7839054E-2,2.0701966E0,-1.4935057E0,4.7494403E-1,1.5293808E0,-2.0253427E-2,-9.262847E-2,-4.3791527E-1,8.1669146E-1,3.1340246E0,-6.7949824E-2,1.7330848E-1,-1.4275001E0,5.526689E-1,-6.305209E-2,2.2790467E-2,-9.598633E-2,1.2636102E0,1.2249622E0,9.978397E-1,1.2636102E0,-7.884375E-3,-6.115027E-2,-3.1498984E-1,1.2421608E0,-3.1498984E-1,-3.7140995E-1,-6.536367E-2,4.6629867E-1,-1.0684278E0,4.6629867E-1,-4.394752E-1,4.1997166E0,-5.4691922E-2,-1.41897565E-2,-7.097466E-2,8.458083E-2,-9.344667E-2,3.5741222E-3,1.5591282E-1,5.5211685E-3,-3.1998094E-2,9.815528E-2,1.5920638E-1,5.3715713E-2,-5.760026E-2,8.74605E-2,-1.8708162E-3,9.9749915E-2,1.0615637E-1,2.0645173E-1,7.115153E-2,-3.2874826E-2,-1.506289E-2,-6.288076E-2,-4.1114166E-3,1.4133964E-1,-5.448121E-2,-9.8367736E-2,-5.1449507E-2,7.863015E-2,3.5992783E-4,9.8931454E-2,-8.024304E-2,4.1365746E-2],"split_indices":[3,4,9,1,13,13,13,10,13,0,13,4,8,4,10,8,10,10,13,9,10,3,1,0,0,8,10,4,0,0,10,10,4,0,0,1,13,1,1,0,0,8,12,8,10,0,1,13,1,12,4,0,0,0,0,0,0,0,0,0,0,0,0,0,0,0,0,0,0,0,0,0,0,0,0,0,0,0,0,0,0,0,0],"split_type":[0,0,0,0,0,0,0,0,0,0,0,0,0,0,0,0,0,0,0,0,0,0,0,0,0,0,0,0,0,0,0,0,0,0,0,0,0,0,0,0,0,0,0,0,0,0,0,0,0,0,0,0,0,0,0,0,0,0,0,0,0,0,0,0,0,0,0,0,0,0,0,0,0,0,0,0,0,0,0,0,0,0,0],"sum_hessian":[3.7236203E2,2.1788693E2,1.544751E2,1.9649942E2,2.1387503E1,9.548127E1,5.899382E1,1.6640245E2,3.0096968E1,2.1907825E0,1.919672E1,8.743535E1,8.0459175E0,2.9516806E1,2.9477016E1,4.274069E1,1.23661766E2,8.100834E0,2.1996134E1,1.6807556E1,2.3891637E0,8.095922E1,6.4761286E0,1.3838559E0,6.6620617E0,5.8419514E0,2.3674854E1,2.7828838E1,1.6481771E0,1.8573135E0,4.0883377E1,7.604742E1,4.7614357E1,1.2494735E0,6.851361E0,6.9897265E0,1.5006407E1,1.2795285E1,4.01227E0,1.0660713E0,1.3230925E0,3.1709E1,4.925022E1,3.4273713E0,3.0487576E0,1.5035574E0,4.338394E0,1.8317196E1,5.3576574E0,2.2904385E1,4.9244533E0,1.2704242E1,2.8179134E1,6.923032E1,6.81709E0,4.5880108E1,1.7342459E0,5.0413003E0,1.9484261E0,1.1695507E1,3.3108988E0,8.762921E0,4.0323644E0,3.001464E0,1.0108062E0,1.6057026E1,1.5651974E1,4.321483E1,6.035393E0,2.1051807E0,1.3221906E0,1.0844507E0,1.9643068E0,2.9192934E0,1.4191008E0,6.4132442E0,1.1903953E1,2.6430128E0,2.7146447E0,3.474346E0,1.943004E1,1.6585343E0,3.265919E0],"tree_param":{"num_deleted":"0","num_feature":"14","num_nodes":"83","size_leaf_vector":"1"}},{"base_weights":[-3.186397E-2,-3.1663957E-1,6.3690126E-1,-5.166047E-1,4.473875E-1,9.107542E-1,2.4462248E-1,-6.3755864E-1,2.621285E-2,6.9187146E-1,-2.7673462E-1,-7.298128E-2,9.8008364E-1,-3.667354E-1,6.031819E-1,-2.793013E-1,-8.1227314E-1,4.8937353E-1,-3.2831416E-1,8.6925006E-1,-8.448039E-2,-6.8317866E-1,1.4117382E-1,1.045308E0,-6.9688365E-2,-6.264925E-1,3.3243093E-1,9.156573E-1,2.2972922E-1,6.5613467E-1,-3.4410754E-1,-8.4553814E-1,-3.5832113E-1,1.8377152E-1,1.7808156E-1,-5.4800045E-1,1.9201246E-1,9.8998183E-1,-8.050477E-2,-8.167719E-1,3.5124388E-2,1.2388469E0,6.1372465E-1,4.0684875E-2,-7.467947E-1,9.7398005E-2,-2.6398268E-1,-1.9114113E-1,1.0973248E0,-1.1992634E-1,9.287817E-1,1.229219E-2,9.3685664E-2,-4.6078067E-2,3.3491214E-3,-4.341231E-2,-8.7946884E-2,-7.851948E-2,4.2905457E-2,-4.522034E-2,5.147754E-2,-7.473105E-2,6.551035E-2,9.708217E-2,-4.913648E-2,1.8848008E-1,8.1372306E-2,-9.565533E-2,-1.2109446E-2,1.5343082E-1,6.715014E-2,-5.7436742E-2,7.06833E-2,-6.251817E-3,-8.692118E-2,-6.824204E-2,3.86403E-2,3.433625E-2,-6.414432E-2,6.580397E-3,1.295883E-1,-3.6600452E-2,8.838384E-2,-4.2672264E-3,1.419135E-1],"categories":[],"categories_nodes":[],"categories_segments":[],"categories_sizes":[],"default_left":[0,0,0,0,0,0,0,0,0,0,0,0,0,0,0,0,0,0,0,0,0,0,0,0,0,0,0,0,0,0,0,0,0,0,0,0,0,0,0,0,0,0,0,0,0,0,0,0,0,0,0,0,0,0,0,0,0,0,0,0,0,0,0,0,0,0,0,0,0,0,0,0,0,0,0,0,0,0,0,0,0,0,0,0,0],"id":9,"left_children":[1,3,5,7,9,11,13,15,17,19,21,-1,23,25,27,29,31,33,35,37,-1,39,-1,41,-1,43,45,47,49,51,53,55,57,59,-1,61,63,65,-1,67,-1,69,71,-1,73,-1,75,77,79,81,83,-1,-1,-1,-1,-1,-1,-1,-1,-1,-1,-1,-1,-1,-1,-1,-1,-1,-1,-1,-1,-1,-1,-1,-1,-1,-1,-1,-1,-1,-1,-1,-1,-1,-1],"loss_changes":[7.067521E1,3.998352E1,1.1684925E1,1.3586891E1,9.841617E0,8.097923E0,1.0510102E1,1.0355255E1,6.50274E0,1.1919809E1,1.0896799E1,0E0,7.5869026E0,3.4724858E0,3.2861967E0,3.6778998E0,1.4051895E0,6.440315E0,2.674403E0,8.333357E0,0E0,1.9920168E0,0E0,4.314522E0,0E0,1.9760184E0,2.3700085E0,3.422534E0,3.7740574E0,4.8859477E-1,2.3905315E0,1.0792084E0,3.5160346E0,3.3865108E0,0E0,4.3413076E0,4.4223166E0,4.021755E0,0E0,9.76038E-1,0E0,5.8364525E0,2.706008E0,0E0,9.844842E-1,0E0,1.2566005E0,9.6747494E-1,2.7563477E0,3.0094676E0,2.494966E0,0E0,0E0,0E0,0E0,0E0,0E0,0E0,0E0,0E0,0E0,0E0,0E0,0E0,0E0,0E0,0E0,0E0,0E0,0E0,0E0,0E0,0E0,0E0,0E0,0E0,0E0,0E0,0E0,0E0,0E0,0E0,0E0,0E0,0E0],"parents":[2147483647,0,0,1,1,2,2,3,3,4,4,5,5,6,6,7,7,8,8,9,9,10,10,12,12,13,13,14,14,15,15,16,16,17,17,18,18,19,19,21,21,23,23,25,25,26,26,27,27,28,28,29,29,30,30,31,31,32,32,33,33,35,35,36,36,37,37,39,39,41,41,42,42,44,44,46,46,47,47,48,48,49,49,50,50],"right_children":[2,4,6,8,10,12,14,16,18,20,22,-1,24,26,28,30,32,34,36,38,-1,40,-1,42,-1,44,46,48,50,52,54,56,58,60,-1,62,64,66,-1,68,-1,70,72,-1,74,-1,76,78,80,82,84,-1,-1,-1,-1,-1,-1,-1,-1,-1,-1,-1,-1,-1,-1,-1,-1,-1,-1,-1,-1,-1,-1,-1,-1,-1,-1,-1,-1,-1,-1,-1,-1,-1,-1],"split_conditions":[4.595925E-1,2.0337096E-1,2.0701966E0,-6.0934514E-2,2.0701966E0,-1.3302017E0,9.1290134E-1,-6.74658E-1,-3.5373583E-1,1.2249622E0,1.3449477E0,-7.298128E-2,1.7218266E0,9.2299837E-1,-3.8745114E-1,-5.3496164E-1,-6.9967814E-2,3.1904656E-1,4.7494403E-1,2.0683324E0,-8.448039E-2,1.7951512E0,1.4117382E-1,9.978397E-1,-6.9688365E-2,-1.4111775E0,-3.8745114E-1,9.891528E-1,1.3754994E0,1.2945236E0,3.1904656E-1,-5.323738E-1,-3.1498984E-1,-6.5242365E-2,1.7808156E-1,4.6629867E-1,-6.9967814E-2,-5.064947E-1,-8.050477E-2,7.7948076E-1,3.5124388E-2,9.2299837E-1,-8.1515884E-1,4.0684875E-2,-6.5242365E-2,9.7398005E-2,1.2612807E0,4.69794E-1,-6.305209E-2,5.0299115E0,-2.6711363E-1,1.229219E-2,9.3685664E-2,-4.6078067E-2,3.3491214E-3,-4.341231E-2,-8.7946884E-2,-7.851948E-2,4.2905457E-2,-4.522034E-2,5.147754E-2,-7.473105E-2,6.551035E-2,9.708217E-2,-4.913648E-2,1.8848008E-1,8.1372306E-2,-9.565533E-2,-1.2109446E-2,1.5343082E-1,6.715014E-2,-5.7436742E-2,7.06833E-2,-6.251817E-3,-8.692118E-2,-6.824204E-2,3.86403E-2,3.433625E-2,-6.414432E-2,6.580397E-3,1.295883E-1,-3.6600452E-2,8.838384E-2,-4.2672264E-3,1.419135E-1],"split_indices":[0,4,9,3,9,13,13,11,13,13,13,0,11,11,8,8,0,8,3,4,0,1,0,1,0,13,8,0,13,13,8,8,8,1,0,1,0,8,0,13,0,11,13,0,1,0,2,4,4,3,8,0,0,0,0,0,0,0,0,0,0,0,0,0,0,0,0,0,0,0,0,0,0,0,0,0,0,0,0,0,0,0,0,0,0],"split_type":[0,0,0,0,0,0,0,0,0,0,0,0,0,0,0,0,0,0,0,0,0,0,0,0,0,0,0,0,0,0,0,0,0,0,0,0,0,0,0,0,0,0,0,0,0,0,0,0,0,0,0,0,0,0,0,0,0,0,0,0,0,0,0,0,0,0,0,0,0,0,0,0,0,0,0,0,0,0,0,0,0,0,0,0,0],"sum_hessian":[3.6904086E2,2.5919583E2,1.0984502E2,2.0568637E2,5.3509468E1,6.3908367E1,4.593665E1,1.68063E2,3.7623367E1,4.003654E1,1.3472926E1,2.2049556E0,6.170341E1,1.697345E1,2.8963202E1,5.59449E1,1.121181E2,1.614755E1,2.1475817E1,3.6282753E1,3.75379E0,1.1338858E1,2.1340687E0,5.9755917E1,1.9474952E0,1.2451398E1,4.522051E0,1.497851E1,1.3984693E1,3.033516E0,5.2911385E1,1.03659454E2,8.458642E0,1.3981356E1,2.1661959E0,1.5062934E1,6.4128838E0,3.422364E1,2.059111E0,1.0228303E1,1.1105541E0,3.9964016E1,1.9791899E1,1.05005E0,1.1401348E1,1.8735994E0,2.6484513E0,2.1045465E0,1.2873963E1,9.874207E0,4.1104856E0,1.5421611E0,1.491355E0,4.0253334E1,1.2658048E1,8.948753E0,9.47107E1,5.486773E0,2.971869E0,4.6605816E0,9.320774E0,1.3247207E1,1.8157268E0,2.800583E0,3.612301E0,4.036752E0,3.0186888E1,8.204742E0,2.0235608E0,2.5157944E1,1.4806073E1,1.0627E0,1.8729198E1,1.959424E0,9.441924E0,1.5816271E0,1.0668242E0,1.0708928E0,1.0336539E0,2.2930174E0,1.0580946E1,8.440373E0,1.4338335E0,1.6850861E0,2.4253995E0],"tree_param":{"num_deleted":"0","num_feature":"14","num_nodes":"85","size_leaf_vector":"1"}},{"base_weights":[-1.8550685E-3,-3.160544E-1,4.082894E-1,-5.503868E-1,6.2120533E-1,5.658043E-1,1.3481477E-1,-6.3018054E-1,5.1469934E-1,1.1348516E0,3.3482093E-1,-8.656264E-2,6.396154E-1,6.3982177E-1,-2.1743181E-1,-1.2750619E-2,-7.6048595E-1,8.4492135E-1,-7.90043E-2,1.9865598E-1,1.6256982E0,-2.9833242E-1,7.287531E-1,7.1816725E-1,-5.241278E-1,7.8300714E-1,-5.457031E-1,5.318774E-1,-5.4801416E-1,-4.2889315E-1,3.253514E-1,-7.884099E-1,9.408374E-2,4.321112E-3,1.1438403E0,6.053495E-1,-6.696746E-2,2.0724411E-1,-3.5226315E-2,3.2323265E-1,-4.932551E-1,9.268186E-1,8.061587E-2,7.724831E-1,-7.65976E-2,3.075547E-2,-7.4024653E-1,1.2284248E-1,4.3347517E-1,-6.649071E-2,-1.591283E-2,1.2585129E0,-2.9092863E-1,-7.0648557E-1,1.9581584E-2,2.3209853E-2,-5.2562524E-2,4.5942154E-2,-6.235019E-2,-8.189965E-2,-3.3093832E-2,-6.5083675E-2,7.0900664E-2,5.3882666E-2,1.4024954E-1,-2.5726957E-2,1.0331998E-1,8.2314886E-2,-2.7687717E-2,-9.397996E-2,1.0152978E-2,1.0243266E-1,-9.521476E-3,-7.258563E-2,4.9725812E-2,1.6083586E-1,6.6409044E-2,-8.429388E-3,-9.778848E-2,-8.186641E-3,1.1931063E-1,-6.5418735E-2,1.9011025E-1,-8.662089E-2,8.3261065E-2,-2.0652784E-2,-8.599118E-2,8.65254E-2,-7.918567E-2],"categories":[],"categories_nodes":[],"categories_segments":[],"categories_sizes":[],"default_left":[0,0,0,0,0,0,0,0,0,0,0,0,0,0,0,0,0,0,0,0,0,0,0,0,0,0,0,0,0,0,0,0,0,0,0,0,0,0,0,0,0,0,0,0,0,0,0,0,0,0,0,0,0,0,0,0,0,0,0,0,0,0,0,0,0,0,0,0,0,0,0,0,0,0,0,0,0,0,0,0,0,0,0,0,0,0,0,0,0],"id":10,"left_children":[1,3,5,7,9,11,13,15,17,19,21,-1,23,25,27,29,31,33,-1,35,37,39,41,43,45,47,49,51,53,55,57,59,-1,61,63,65,-1,-1,-1,67,69,71,73,75,-1,-1,77,-1,79,-1,-1,81,83,85,87,-1,-1,-1,-1,-1,-1,-1,-1,-1,-1,-1,-1,-1,-1,-1,-1,-1,-1,-1,-1,-1,-1,-1,-1,-1,-1,-1,-1,-1,-1,-1,-1,-1,-1],"loss_changes":[4.6152756E1,4.48801E1,6.6157856E0,1.415667E1,5.6554956E0,1.0935724E1,1.0472632E1,1.2208405E1,5.792118E0,6.2339306E0,7.1415167E0,0E0,8.9711685E0,4.522168E0,8.953172E0,4.0061946E0,6.6983566E0,2.5014734E0,0E0,2.540884E0,8.878656E0,1.5354238E0,2.1594772E0,7.7256584E0,1.4001417E0,2.882389E0,4.1141093E-2,7.069482E0,2.2405295E0,9.372535E-1,2.2876744E0,1.4626541E0,0E0,2.132924E0,3.952055E-1,1.9795883E0,0E0,0E0,0E0,1.2225531E0,2.4968548E0,1.416481E0,2.0977345E0,6.712002E0,0E0,0E0,7.704134E-1,0E0,5.5137367E0,0E0,0E0,8.792251E0,4.644699E0,1.3089247E0,5.0605435E0,0E0,0E0,0E0,0E0,0E0,0E0,0E0,0E0,0E0,0E0,0E0,0E0,0E0,0E0,0E0,0E0,0E0,0E0,0E0,0E0,0E0,0E0,0E0,0E0,0E0,0E0,0E0,0E0,0E0,0E0,0E0,0E0,0E0,0E0],"parents":[2147483647,0,0,1,1,2,2,3,3,4,4,5,5,6,6,7,7,8,8,9,9,10,10,12,12,13,13,14,14,15,15,16,16,17,17,19,19,20,20,21,21,22,22,23,23,24,24,25,25,26,26,27,27,28,28,29,29,30,30,31,31,33,33,34,34,35,35,39,39,40,40,41,41,42,42,43,43,46,46,48,48,51,51,52,52,53,53,54,54],"right_children":[2,4,6,8,10,12,14,16,18,20,22,-1,24,26,28,30,32,34,-1,36,38,40,42,44,46,48,50,52,54,56,58,60,-1,62,64,66,-1,-1,-1,68,70,72,74,76,-1,-1,78,-1,80,-1,-1,82,84,86,88,-1,-1,-1,-1,-1,-1,-1,-1,-1,-1,-1,-1,-1,-1,-1,-1,-1,-1,-1,-1,-1,-1,-1,-1,-1,-1,-1,-1,-1,-1,-1,-1,-1,-1],"split_conditions":[-6.305209E-2,1.9481234E-1,2.0701966E0,2.0700476E-1,-6.5242365E-2,-1.3614944E0,-1.097472E0,-1.2294831E0,3.5465205E-1,-8.3344936E-1,4.6515763E-1,-8.656264E-2,1.8146403E0,5.7551956E0,-4.725271E-1,-1.4275001E0,7.3053193E-1,-8.3344936E-1,-7.90043E-2,1.2379971E-2,4.7494403E-1,-8.99455E-1,1.526655E0,1.5427535E0,-6.354325E-1,-1.4275001E0,-1.3614944E0,-3.8745114E-1,1.8146403E0,-5.323738E-1,7.64166E-1,-6.9967814E-2,9.408374E-2,-2.114737E-1,7.4288327E-1,-4.3015155E-1,-6.696746E-2,2.0724411E-1,-3.5226315E-2,9.891528E-1,6.846802E-1,1.2787309E0,-5.064947E-1,-5.064947E-1,-7.65976E-2,3.075547E-2,-6.559105E-2,1.2284248E-1,2.322778E0,-6.649071E-2,-1.591283E-2,-5.427254E-1,1.6747648E0,2.0337096E-1,-3.8745114E-1,2.3209853E-2,-5.2562524E-2,4.5942154E-2,-6.235019E-2,-8.189965E-2,-3.3093832E-2,-6.5083675E-2,7.0900664E-2,5.3882666E-2,1.4024954E-1,-2.5726957E-2,1.0331998E-1,8.2314886E-2,-2.7687717E-2,-9.397996E-2,1.0152978E-2,1.0243266E-1,-9.521476E-3,-7.258563E-2,4.9725812E-2,1.6083586E-1,6.6409044E-2,-8.429388E-3,-9.778848E-2,-8.186641E-3,1.1931063E-1,-6.5418735E-2,1.9011025E-1,-8.662089E-2,8.3261065E-2,-2.0652784E-2,-8.599118E-2,8.65254E-2,-7.918567E-2],"split_indices":[4,0,9,3,1,10,10,10,10,10,2,0,3,0,5,10,2,10,0,8,3,10,2,10,10,10,10,8,3,8,8,0,0,8,3,8,0,0,0,0,10,10,8,8,0,0,2,0,2,0,0,8,10,4,8,0,0,0,0,0,0,0,0,0,0,0,0,0,0,0,0,0,0,0,0,0,0,0,0,0,0,0,0,0,0,0,0,0,0],"split_type":[0,0,0,0,0,0,0,0,0,0,0,0,0,0,0,0,0,0,0,0,0,0,0,0,0,0,0,0,0,0,0,0,0,0,0,0,0,0,0,0,0,0,0,0,0,0,0,0,0,0,0,0,0,0,0,0,0,0,0,0,0,0,0,0,0,0,0,0,0,0,0,0,0,0,0,0,0,0,0,0,0,0,0,0,0,0,0,0,0],"sum_hessian":[3.5614084E2,2.0178716E2,1.5435367E2,1.6175754E2,4.0029617E1,9.7263336E1,5.709033E1,1.5086353E2,1.0894018E1,1.326873E1,2.676089E1,4.2433686E0,9.3019966E1,2.3123028E1,3.39673E1,2.6481815E1,1.2438171E2,8.97494E0,1.919078E0,5.047092E0,8.221639E0,1.0357049E1,1.640384E1,8.749687E1,5.523096E0,2.0934168E1,2.1888604E0,1.0211855E1,2.3755445E1,1.1750518E1,1.47312975E1,1.2290111E2,1.4805945E0,2.6204205E0,6.3545203E0,3.6434805E0,1.4036117E0,6.6678658E0,1.5537724E0,2.3154223E0,8.041627E0,1.22349615E1,4.168878E0,8.4870346E1,2.6265297E0,1.0519254E0,4.471171E0,8.098964E0,1.2835204E1,1.1226768E0,1.0661837E0,5.141639E0,5.070216E0,1.8379293E1,5.3761535E0,1.3214393E0,1.0429079E1,1.3359459E1,1.371838E0,1.1445816E2,8.442951E0,1.3975292E0,1.2228911E0,2.8264432E0,3.5280771E0,1.3401673E0,2.3033133E0,1.060401E0,1.2550215E0,4.2618823E0,3.7797444E0,1.1167293E1,1.0676688E0,1.1672797E0,3.0015984E0,8.153781E0,7.671656E1,1.5493144E0,2.9218564E0,8.17883E0,4.656374E0,1.2884513E0,3.8531878E0,3.504738E0,1.5654782E0,4.866694E0,1.3512599E1,2.600068E0,2.7760851E0],"tree_param":{"num_deleted":"0","num_feature":"14","num_nodes":"89","size_leaf_vector":"1"}},{"base_weights":[-1.5137087E-2,-3.0957267E-1,3.3459297E-1,-4.7920284E-1,5.8628404E-1,5.293755E-1,-8.070606E-4,-5.692257E-1,8.0122334E-1,-7.609552E-2,7.284377E-1,6.3087314E-1,-9.1678575E-2,1.3957168E-1,-9.250982E-2,-1.5790273E-2,-6.9015765E-1,1.0468891E0,-6.505492E-2,1.3523396E0,2.9203284E-1,-7.7348724E-2,6.785725E-1,-1.7185779E-1,5.0822777E-1,-3.756149E-1,2.7746558E-1,-7.753816E-1,-1.3324715E-1,1.2284207E0,-1.5009502E-2,1.60134E0,3.2988712E-1,-8.132835E-2,5.194395E-1,3.2977295E-1,8.909639E-1,2.758872E-1,-5.139009E-1,-3.559768E-1,6.915331E-1,1.9854883E-2,-4.5951918E-2,4.4097774E-2,-4.6448376E-2,-8.56596E-2,-2.9925767E-2,3.881508E-2,-6.757968E-2,1.4165264E-1,-7.1261995E-3,1.0059201E-1,2.1101578E-1,-1.3939316E-2,6.2242E-2,1.1349227E-1,2.0345239E-2,-5.6068894E-2,5.6765597E-2,-6.815436E-2,9.467996E-2,6.5039806E-2,-3.8863163E-2,-6.345249E-2,3.4978777E-2,5.613583E-3,-7.228225E-2,1.13915496E-1,2.3697307E-2],"categories":[],"categories_nodes":[],"categories_segments":[],"categories_sizes":[],"default_left":[0,0,0,0,0,0,0,0,0,0,0,0,0,0,0,0,0,0,0,0,0,0,0,0,0,0,0,0,0,0,0,0,0,0,0,0,0,0,0,0,0,0,0,0,0,0,0,0,0,0,0,0,0,0,0,0,0,0,0,0,0,0,0,0,0,0,0,0,0],"id":11,"left_children":[1,3,5,7,9,11,13,15,17,-1,19,21,-1,23,-1,25,27,29,-1,31,33,-1,35,37,39,41,43,45,47,49,-1,51,53,-1,55,57,59,61,63,65,67,-1,-1,-1,-1,-1,-1,-1,-1,-1,-1,-1,-1,-1,-1,-1,-1,-1,-1,-1,-1,-1,-1,-1,-1,-1,-1,-1,-1],"loss_changes":[3.6775944E1,2.974265E1,1.0666431E1,1.930896E1,6.5516205E0,1.573859E1,8.0412445E0,1.0255737E1,4.660995E0,0E0,7.456682E0,7.029499E0,0E0,6.265067E0,0E0,3.114911E0,5.8705635E0,2.3415146E0,0E0,2.4233341E0,5.008118E0,0E0,6.702915E0,4.723234E0,4.1895285E0,7.289082E-1,2.1817176E0,3.9567032E0,5.329468E0,2.234991E0,0E0,6.2325096E-1,5.713478E-1,0E0,2.8304734E0,8.2261715E0,5.74778E0,3.6389894E0,2.0252056E0,7.98935E-1,3.9778442E0,0E0,0E0,0E0,0E0,0E0,0E0,0E0,0E0,0E0,0E0,0E0,0E0,0E0,0E0,0E0,0E0,0E0,0E0,0E0,0E0,0E0,0E0,0E0,0E0,0E0,0E0,0E0,0E0],"parents":[2147483647,0,0,1,1,2,2,3,3,4,4,5,5,6,6,7,7,8,8,10,10,11,11,13,13,15,15,16,16,17,17,19,19,20,20,22,22,23,23,24,24,25,25,26,26,27,27,28,28,29,29,31,31,32,32,34,34,35,35,36,36,37,37,38,38,39,39,40,40],"right_children":[2,4,6,8,10,12,14,16,18,-1,20,22,-1,24,-1,26,28,30,-1,32,34,-1,36,38,40,42,44,46,48,50,-1,52,54,-1,56,58,60,62,64,66,68,-1,-1,-1,-1,-1,-1,-1,-1,-1,-1,-1,-1,-1,-1,-1,-1,-1,-1,-1,-1,-1,-1,-1,-1,-1,-1,-1,-1],"split_conditions":[-6.559105E-2,1.9481234E-1,2.0701966E0,7.362171E-1,-9.485795E-1,1.2249622E0,1.1711909E0,-1.2294831E0,2.0683324E0,-7.609552E-2,-6.5242365E-2,-1.3302017E0,-9.1678575E-2,1.2636102E0,-9.250982E-2,-1.4275001E0,-6.305209E-2,6.344334E-1,-6.505492E-2,2.0701966E0,-5.155526E-1,-7.7348724E-2,-2.3939867E-1,-3.7140995E-1,9.959063E-1,-5.323738E-1,3.9927158E-1,1.2421608E0,-9.485795E-1,2.0701966E0,-1.5009502E-2,1.9353323E-1,-7.674437E-1,-8.132835E-2,-4.3015155E-1,1.0817311E0,-1.5183296E0,7.320692E-1,1.8019093E0,1.5663514E-1,2.3266923E0,1.9854883E-2,-4.5951918E-2,4.4097774E-2,-4.6448376E-2,-8.56596E-2,-2.9925767E-2,3.881508E-2,-6.757968E-2,1.4165264E-1,-7.1261995E-3,1.0059201E-1,2.1101578E-1,-1.3939316E-2,6.2242E-2,1.1349227E-1,2.0345239E-2,-5.6068894E-2,5.6765597E-2,-6.815436E-2,9.467996E-2,6.5039806E-2,-3.8863163E-2,-6.345249E-2,3.4978777E-2,5.613583E-3,-7.228225E-2,1.13915496E-1,2.3697307E-2],"split_indices":[2,0,9,4,13,13,12,10,4,0,1,13,0,1,0,10,4,13,0,9,13,0,10,10,2,8,8,12,13,9,0,8,10,0,8,12,12,1,4,10,1,0,0,0,0,0,0,0,0,0,0,0,0,0,0,0,0,0,0,0,0,0,0,0,0,0,0,0,0],"split_type":[0,0,0,0,0,0,0,0,0,0,0,0,0,0,0,0,0,0,0,0,0,0,0,0,0,0,0,0,0,0,0,0,0,0,0,0,0,0,0,0,0,0,0,0,0,0,0,0,0,0,0,0,0,0,0,0,0,0,0,0,0,0,0,0,0,0,0,0,0],"sum_hessian":[3.551358E2,1.9287248E2,1.6226332E2,1.6255739E2,3.03151E1,1.0228392E2,5.997941E1,1.5239816E2,1.0159213E1,2.4779232E0,2.7837175E1,9.610278E1,6.1811347E0,5.2808064E1,7.1713443E0,2.7531763E1,1.248664E2,8.9274235E0,1.2317897E0,1.0593485E1,1.724369E1,2.6570897E0,9.3445694E1,2.8915203E1,2.3892859E1,1.223661E1,1.5295152E1,1.0795393E2,1.6912472E1,7.728999E0,1.1984243E0,8.063569E0,2.5299163E0,2.502736E0,1.4740955E1,3.633207E1,5.7113625E1,1.2606421E1,1.6308783E1,4.0162063E0,1.9876652E1,1.3859652E0,1.0850645E1,1.2865483E1,2.4296687E0,9.154041E1,1.641352E1,8.769468E0,8.143003E0,6.6732626E0,1.0557367E0,5.0873327E0,2.9762363E0,1.1724968E0,1.3574195E0,4.1214585E0,1.0619496E1,7.3736115E0,2.8958458E1,1.5741589E0,5.5539467E1,8.076117E0,4.530305E0,1.4543015E1,1.7657676E0,2.2902868E0,1.7259197E0,9.255935E0,1.0620717E1],"tree_param":{"num_deleted":"0","num_feature":"14","num_nodes":"69","size_leaf_vector":"1"}},{"base_weights":[-3.1107036E-2,-2.6655942E-1,3.5396805E-1,-5.148649E-1,2.7054438E-1,5.652796E-1,1.3356999E-1,-5.84659E-1,5.461202E-1,-1.7067212E-1,4.6637106E-1,-3.7681428E-1,6.2731355E-1,7.1554834E-1,1.2623196E-2,-2.9226083E-1,-7.398659E-1,1.6792184E-2,1.1199355E0,-6.9263816E-1,2.3255782E-1,6.0884094E-1,-1.8636222E-1,2.6041476E-2,-7.7632E-2,8.682545E-1,4.1685322E-1,9.8053217E-1,1.0285717E-2,-2.668723E-1,2.618042E-1,8.002287E-2,-3.7117407E-1,-8.0561054E-1,-9.184141E-2,-4.9071032E-1,6.5090835E-2,1.2916057E-1,4.111847E-2,-7.462867E-1,-1.2518795E-2,-2.9053903E-1,6.302139E-1,6.657788E-1,-4.5048226E-2,2.0984165E-1,-8.750238E-2,5.5586934E-1,1.4410295E0,6.5861946E-1,-1.4171928E-1,1.1531045E0,2.198801E-2,-7.8840666E-2,9.703787E-2,-7.298767E-1,2.1154742E-1,1.029431E0,7.446485E-2,-4.5252852E-2,2.5584197E-2,-5.148932E-2,-8.699077E-2,7.935376E-2,-6.437974E-2,-7.420041E-4,-7.452017E-2,-8.154924E-3,-8.2878955E-2,-6.6649705E-2,6.4025626E-2,1.0059809E-1,-1.8989865E-2,-5.984356E-4,7.860437E-2,7.730197E-2,-2.3275947E-2,-5.7618212E-2,9.3141586E-2,1.7482285E-1,5.2802593E-2,3.1230694E-2,1.2690692E-1,-5.6771446E-2,2.2992285E-2,1.4435999E-1,5.831757E-4,-4.0379655E-2,-8.244805E-2,8.440923E-2,-5.503196E-3,1.5251958E-1,-1.6376698E-2,-4.605883E-2,4.084368E-2],"categories":[],"categories_nodes":[],"categories_segments":[],"categories_sizes":[],"default_left":[0,0,0,0,0,0,0,0,0,0,0,0,0,0,0,0,0,0,0,0,0,0,0,0,0,0,0,0,0,0,0,0,0,0,0,0,0,0,0,0,0,0,0,0,0,0,0,0,0,0,0,0,0,0,0,0,0,0,0,0,0,0,0,0,0,0,0,0,0,0,0,0,0,0,0,0,0,0,0,0,0,0,0,0,0,0,0,0,0,0,0,0,0,0,0],"id":12,"left_children":[1,3,5,7,9,11,13,15,17,19,21,23,25,27,29,31,33,35,37,39,41,43,45,-1,-1,47,49,51,53,55,57,-1,59,61,63,65,-1,-1,-1,67,-1,69,71,73,-1,75,-1,77,79,81,83,85,-1,-1,-1,87,89,91,93,-1,-1,-1,-1,-1,-1,-1,-1,-1,-1,-1,-1,-1,-1,-1,-1,-1,-1,-1,-1,-1,-1,-1,-1,-1,-1,-1,-1,-1,-1,-1,-1,-1,-1,-1,-1],"loss_changes":[3.1887884E1,2.9236824E1,6.141241E0,1.1393261E1,6.0959506E0,4.2009506E0,4.6821485E0,6.173527E0,2.9418194E0,4.820298E0,4.623266E0,1.4281261E0,2.884531E0,2.1296287E0,3.9837472E0,4.6485586E0,3.8167877E0,2.2777965E0,3.6131382E-2,2.0793915E-1,2.9366922E0,2.715024E0,2.7631755E0,0E0,0E0,4.3746147E0,4.967896E0,8.3754015E-1,3.9378161E0,6.1313763E0,4.2684317E0,0E0,2.5519214E0,1.0995026E0,5.173196E0,4.803357E-1,0E0,0E0,0E0,4.1737175E-1,0E0,2.6668813E0,2.6058881E0,3.1072006E0,0E0,1.8768995E0,0E0,9.1863785E0,1.7639484E0,4.966881E0,1.9870949E0,2.1709661E0,0E0,0E0,0E0,9.7013E-2,2.414899E0,3.7099476E0,4.7207355E0,0E0,0E0,0E0,0E0,0E0,0E0,0E0,0E0,0E0,0E0,0E0,0E0,0E0,0E0,0E0,0E0,0E0,0E0,0E0,0E0,0E0,0E0,0E0,0E0,0E0,0E0,0E0,0E0,0E0,0E0,0E0,0E0,0E0,0E0,0E0,0E0],"parents":[2147483647,0,0,1,1,2,2,3,3,4,4,5,5,6,6,7,7,8,8,9,9,10,10,11,11,12,12,13,13,14,14,15,15,16,16,17,17,18,18,19,19,20,20,21,21,22,22,25,25,26,26,27,27,28,28,29,29,30,30,32,32,33,33,34,34,35,35,39,39,41,41,42,42,43,43,45,45,47,47,48,48,49,49,50,50,51,51,55,55,56,56,57,57,58,58],"right_children":[2,4,6,8,10,12,14,16,18,20,22,24,26,28,30,32,34,36,38,40,42,44,46,-1,-1,48,50,52,54,56,58,-1,60,62,64,66,-1,-1,-1,68,-1,70,72,74,-1,76,-1,78,80,82,84,86,-1,-1,-1,88,90,92,94,-1,-1,-1,-1,-1,-1,-1,-1,-1,-1,-1,-1,-1,-1,-1,-1,-1,-1,-1,-1,-1,-1,-1,-1,-1,-1,-1,-1,-1,-1,-1,-1,-1,-1,-1,-1],"split_conditions":[1.9481234E-1,-6.0934514E-2,4.69794E-1,4.69794E-1,-1.4210588E-1,-5.3496164E-1,-4.8190963E-1,-6.74658E-1,-1.364245E-1,-4.0297857E-1,-6.9967814E-2,-9.4093406E-1,-7.6225734E-1,1.2787617E0,1.253933E0,-5.3496164E-1,-6.305209E-2,1.2690632E0,1.0026401E0,1.5354862E0,-6.559105E-2,2.0825796E0,1.9978328E-1,2.6041476E-2,-7.7632E-2,-1.1686394E0,-4.0838194E-1,7.166885E-1,3.1543367E0,-1.5971562E-1,-1.0463642E0,8.002287E-2,1.2936059E0,-4.7673383E-1,-9.1024184E-1,-4.4567898E-1,6.5090835E-2,1.2916057E-1,4.111847E-2,-5.090826E-1,-1.2518795E-2,4.7494403E-1,7.4288327E-1,-1.2752844E0,-4.5048226E-2,-1.0463642E0,-8.750238E-2,1.9978328E-1,-6.305209E-2,1.9353323E-1,4.6515763E-1,2.0482733E0,2.198801E-2,-7.8840666E-2,9.703787E-2,2.0701966E0,-4.0838194E-1,-4.725271E-1,1.2612807E0,-4.5252852E-2,2.5584197E-2,-5.148932E-2,-8.699077E-2,7.935376E-2,-6.437974E-2,-7.420041E-4,-7.452017E-2,-8.154924E-3,-8.2878955E-2,-6.6649705E-2,6.4025626E-2,1.0059809E-1,-1.8989865E-2,-5.984356E-4,7.860437E-2,7.730197E-2,-2.3275947E-2,-5.7618212E-2,9.3141586E-2,1.7482285E-1,5.2802593E-2,3.1230694E-2,1.2690692E-1,-5.6771446E-2,2.2992285E-2,1.4435999E-1,5.831757E-4,-4.0379655E-2,-8.244805E-2,8.440923E-2,-5.503196E-3,1.5251958E-1,-1.6376698E-2,-4.605883E-2,4.084368E-2],"split_indices":[0,3,4,4,11,8,8,11,8,8,0,11,12,3,0,8,4,4,4,4,2,3,2,0,0,12,11,12,3,8,12,0,12,8,12,8,0,0,0,8,0,3,3,12,0,12,0,2,4,8,2,0,0,0,0,9,11,5,2,0,0,0,0,0,0,0,0,0,0,0,0,0,0,0,0,0,0,0,0,0,0,0,0,0,0,0,0,0,0,0,0,0,0,0,0],"split_type":[0,0,0,0,0,0,0,0,0,0,0,0,0,0,0,0,0,0,0,0,0,0,0,0,0,0,0,0,0,0,0,0,0,0,0,0,0,0,0,0,0,0,0,0,0,0,0,0,0,0,0,0,0,0,0,0,0,0,0,0,0,0,0,0,0,0,0,0,0,0,0,0,0,0,0,0,0,0,0,0,0,0,0,0,0,0,0,0,0,0,0,0,0,0,0],"sum_hessian":[3.496632E2,2.1717831E2,1.324849E2,1.4854616E2,6.863215E1,6.683784E1,6.5647064E1,1.3979881E2,8.747346E0,2.1136969E1,4.7495182E1,3.8156855E0,6.3022152E1,1.0449477E1,5.5197586E1,4.9474876E1,9.032394E1,5.085439E0,3.661907E0,8.899358E0,1.2237611E1,3.9041065E1,8.454116E0,1.6045368E0,2.2111487E0,2.7926085E1,3.5096066E1,7.311911E0,3.1375659E0,2.5982807E1,2.921478E1,2.7171762E0,4.67577E1,8.17835E1,8.540439E0,2.9503415E0,2.1350977E0,2.2858665E0,1.3760405E0,7.8427243E0,1.056634E0,5.401533E0,6.8360777E0,3.7402225E1,1.6388388E0,5.8079505E0,2.6461656E0,1.934566E1,8.580424E0,2.4369246E1,1.0726822E1,5.5392547E0,1.7726567E0,1.8103637E0,1.3272021E0,1.2937028E1,1.3045779E1,4.8493724E0,2.4365408E1,4.163403E1,5.1236725E0,1.644338E1,6.534012E1,3.111567E0,5.428871E0,1.3726932E0,1.5776484E0,1.0854598E0,6.7572646E0,4.0497465E0,1.3517867E0,4.5326347E0,2.3034432E0,5.8236E0,3.1578627E1,2.2273147E0,3.5806358E0,4.685971E0,1.4659689E1,5.735715E0,2.8447092E0,1.6512938E1,7.856307E0,4.7521176E0,5.9747043E0,4.2139683E0,1.3252863E0,4.0940285E0,8.842999E0,3.2256088E0,9.82017E0,3.2293565E0,1.6200159E0,9.218084E0,1.5147324E1],"tree_param":{"num_deleted":"0","num_feature":"14","num_nodes":"95","size_leaf_vector":"1"}},{"base_weights":[-1.1875716E-2,-2.5376368E-1,3.721097E-1,-3.8592955E-1,5.19754E-1,-6.96596E-1,4.1606244E-1,-4.613912E-1,4.2591643E-1,7.717102E-1,-1.9136739E-1,-6.6863373E-3,-8.248985E-2,8.2196623E-1,2.9457018E-1,-3.235669E-1,-8.1925946E-1,5.969092E-1,-4.9852002E-2,3.828971E-1,1.2724317E0,7.15651E-2,-4.9473664E-1,-7.6366775E-2,9.8628044E-1,-8.823164E-2,3.4911883E-1,-9.6293725E-2,-2.3372754E-1,-8.684779E-2,-3.0763537E-1,-3.6331635E-2,7.705675E-1,5.547495E-1,-8.450557E-2,1.3939786E0,4.7546294E-2,-8.68629E-2,-8.664292E-2,1.2530258E0,6.143203E-1,5.620185E-1,1.6343737E-1,-3.365993E-2,1.8465003E-2,1.1020541E-2,-7.269167E-2,-5.7625747E-3,1.12148896E-1,2.9084353E-2,9.051915E-2,1.5513545E-1,3.9934464E-2,3.2107633E-2,-6.675419E-2,1.4147209E-1,-6.4933947E-3,-1.832901E-2,9.313249E-2,-6.8910057E-3,7.317987E-2,2.6899835E-2,-3.00031E-2],"categories":[],"categories_nodes":[],"categories_segments":[],"categories_sizes":[],"default_left":[0,0,0,0,0,0,0,0,0,0,0,0,0,0,0,0,0,0,0,0,0,0,0,0,0,0,0,0,0,0,0,0,0,0,0,0,0,0,0,0,0,0,0,0,0,0,0,0,0,0,0,0,0,0,0,0,0,0,0,0,0,0,0],"id":13,"left_children":[1,3,5,7,9,11,13,15,17,19,21,-1,-1,23,25,27,29,31,-1,33,35,-1,37,-1,39,-1,41,-1,43,-1,45,-1,47,49,-1,51,-1,53,-1,55,57,59,61,-1,-1,-1,-1,-1,-1,-1,-1,-1,-1,-1,-1,-1,-1,-1,-1,-1,-1,-1,-1],"loss_changes":[3.205977E1,2.1847172E1,6.5565968E0,1.1310493E1,5.7602234E0,4.0086627E-1,6.108034E0,7.9454613E0,2.8185692E0,4.0545635E0,2.829523E0,0E0,0E0,8.336302E0,6.770438E0,6.7731113E0,8.8189316E-1,2.6001372E0,0E0,3.5418003E0,2.8328037E-1,0E0,1.0364218E0,0E0,1.8901577E0,0E0,3.7396097E0,0E0,4.7165775E0,0E0,1.0529702E0,0E0,3.5822616E0,9.739866E-1,0E0,6.2590027E-1,0E0,1.3058048E0,0E0,3.2140198E0,3.4976602E0,4.8431034E0,2.6825056E0,0E0,0E0,0E0,0E0,0E0,0E0,0E0,0E0,0E0,0E0,0E0,0E0,0E0,0E0,0E0,0E0,0E0,0E0,0E0,0E0],"parents":[2147483647,0,0,1,1,2,2,3,3,4,4,5,5,6,6,7,7,8,8,9,9,10,10,13,13,14,14,15,15,16,16,17,17,19,19,20,20,22,22,24,24,26,26,28,28,30,30,32,32,33,33,35,35,37,37,39,39,40,40,41,41,42,42],"right_children":[2,4,6,8,10,12,14,16,18,20,22,-1,-1,24,26,28,30,32,-1,34,36,-1,38,-1,40,-1,42,-1,44,-1,46,-1,48,50,-1,52,-1,54,-1,56,58,60,62,-1,-1,-1,-1,-1,-1,-1,-1,-1,-1,-1,-1,-1,-1,-1,-1,-1,-1,-1,-1],"split_conditions":[1.9481234E-1,4.6629867E-1,-1.2606404E0,7.362171E-1,-6.9967814E-2,-1.4111775E0,-6.5242365E-2,5.526689E-1,2.0683324E0,1.0108225E0,-1.1634775E0,-6.6863373E-3,-8.248985E-2,-1.1686394E0,-8.1515884E-1,-1.3302017E0,1.9978328E-1,-8.99455E-1,-4.9852002E-2,9.959063E-1,2.0609217E0,7.15651E-2,4.7494403E-1,-7.6366775E-2,-6.305209E-2,-8.823164E-2,4.69794E-1,-9.6293725E-2,-6.559105E-2,-8.684779E-2,-6.9967814E-2,-3.6331635E-2,-1.1729562E0,7.166885E-1,-8.450557E-2,-1.7839054E-2,4.7546294E-2,7.7948076E-1,-8.664292E-2,4.7494403E-1,4.69794E-1,-6.559105E-2,1.1711909E0,-3.365993E-2,1.8465003E-2,1.1020541E-2,-7.269167E-2,-5.7625747E-3,1.12148896E-1,2.9084353E-2,9.051915E-2,1.5513545E-1,3.9934464E-2,3.2107633E-2,-6.675419E-2,1.4147209E-1,-6.4933947E-3,-1.832901E-2,9.313249E-2,-6.8910057E-3,7.317987E-2,2.6899835E-2,-3.00031E-2],"split_indices":[0,1,13,4,0,13,1,10,4,3,10,0,0,12,13,13,2,10,0,2,1,0,3,0,4,0,4,0,2,0,0,0,13,12,0,13,0,13,0,3,4,2,12,0,0,0,0,0,0,0,0,0,0,0,0,0,0,0,0,0,0,0,0],"split_type":[0,0,0,0,0,0,0,0,0,0,0,0,0,0,0,0,0,0,0,0,0,0,0,0,0,0,0,0,0,0,0,0,0,0,0,0,0,0,0,0,0,0,0,0,0,0,0,0,0,0,0,0,0,0,0,0,0,0,0,0,0,0,0],"sum_hessian":[3.4315204E2,2.1073848E2,1.3241356E2,1.8041348E2,3.0324993E1,4.644097E0,1.2776946E2,1.6546506E2,1.4948418E1,2.2328588E1,7.9964056E0,1.043507E0,3.60059E0,2.8105118E1,9.9664345E1,1.2083322E2,4.463184E1,1.2914015E1,2.0344028E0,1.3562173E1,8.766415E0,1.6635844E0,6.3328214E0,2.2964773E0,2.5808641E1,3.7426145E0,9.592173E1,1.3689455E1,1.0714377E2,4.0078762E1,4.5530806E0,1.8105626E0,1.1103452E1,1.2378088E1,1.184085E0,6.9563847E0,1.8100301E0,3.60767E0,2.7251513E0,1.3650613E1,1.2158029E1,4.3741528E1,5.2180202E1,8.6155174E1,2.0988588E1,2.6496706E0,1.9034102E0,3.553289E0,7.550163E0,8.10467E0,4.2734184E0,5.522814E0,1.4335705E0,2.381608E0,1.2260622E0,1.2093494E1,1.5571176E0,3.5777962E0,8.580232E0,9.400816E0,3.4340714E1,4.284198E1,9.3382225E0],"tree_param":{"num_deleted":"0","num_feature":"14","num_nodes":"63","size_leaf_vector":"1"}},{"base_weights":[-9.799591E-3,-1.9572201E-1,3.4061563E-1,-4.227846E-1,2.1614492E-1,7.8716344E-1,2.533E-1,-5.1310796E-1,3.8086212E-1,5.523964E-1,-6.1923992E-2,1.2446014E0,1.7642488E-1,4.9866688E-1,1.5335811E-2,-5.295301E-2,-6.584472E-1,6.1878556E-1,-5.2974135E-1,-2.1535631E-2,6.76362E-1,1.1861136E-2,-8.6013384E-2,7.3934245E-1,1.790605E0,4.8311797E-1,-4.2446056E-1,6.5180963E-1,1.469352E-1,-2.6300973E-1,1.9782306E-1,1.0560788E-1,-1.7091341E-1,-7.280145E-1,-1.558307E-1,-3.8608503E-2,7.9088753E-1,-6.390217E-2,-1.6522154E-2,-7.865445E-2,3.776255E-1,9.548258E-1,2.2484386E-1,-4.4074363E-1,1.59418E-1,9.664698E-1,-2.054423E-2,2.2354667E-1,2.0518925E-2,6.997258E-1,-2.4873806E-2,1.0391755E-2,-7.533863E-2,7.834736E-1,3.9616834E-2,-1.9335635E-1,8.785592E-1,-5.901398E-1,1.6421804E-1,8.9292747E-1,-2.3290293E-2,-4.172134E-2,3.804934E-3,-3.6185384E-2,-7.908356E-2,-7.938834E-2,5.001269E-2,1.0409486E-1,-6.6167167E-3,8.463936E-2,-8.948143E-3,7.11981E-2,1.452903E-1,8.609971E-2,4.007474E-3,-8.8151954E-2,1.2607812E-2,-2.4873395E-3,6.0989976E-2,1.4155635E-1,3.950992E-3,2.3974247E-2,1.033084E-1,1.0884897E-1,5.523132E-2,3.3654965E-2,-4.3389093E-2,-5.1888566E-2,2.488758E-2,1.8555693E-2,1.437035E-1,-8.356841E-2,1.0479691E-2,8.989316E-2,-2.8492285E-2,1.0982219E-1,2.0314595E-2,-2.1629065E-2,7.435681E-2],"categories":[],"categories_nodes":[],"categories_segments":[],"categories_sizes":[],"default_left":[0,0,0,0,0,0,0,0,0,0,0,0,0,0,0,0,0,0,0,0,0,0,0,0,0,0,0,0,0,0,0,0,0,0,0,0,0,0,0,0,0,0,0,0,0,0,0,0,0,0,0,0,0,0,0,0,0,0,0,0,0,0,0,0,0,0,0,0,0,0,0,0,0,0,0,0,0,0,0,0,0,0,0,0,0,0,0,0,0,0,0,0,0,0,0,0,0,0,0],"id":14,"left_children":[1,3,5,7,9,11,13,15,17,19,21,23,25,27,29,31,33,35,37,39,41,43,-1,45,47,49,51,53,55,57,59,-1,61,63,65,-1,67,-1,-1,-1,69,71,73,75,77,79,-1,-1,-1,81,-1,-1,-1,83,85,87,89,91,93,95,97,-1,-1,-1,-1,-1,-1,-1,-1,-1,-1,-1,-1,-1,-1,-1,-1,-1,-1,-1,-1,-1,-1,-1,-1,-1,-1,-1,-1,-1,-1,-1,-1,-1,-1,-1,-1,-1,-1],"loss_changes":[2.2333088E1,2.1033295E1,4.4342766E0,1.0698095E1,7.5369368E0,5.078046E0,5.8824816E0,8.692509E0,3.6193678E0,2.6059113E0,2.6499317E0,1.6215591E0,1.9162962E0,2.577814E0,2.7057045E0,4.420552E0,3.3511314E0,2.4682674E0,4.1252136E-2,2.568507E0,3.5551615E0,2.8761678E0,0E0,1.7539992E0,2.6644611E0,1.2227749E0,7.1615523E-1,2.7327166E0,4.239636E0,3.048252E0,4.9584613E0,0E0,1.5679135E0,1.709671E0,5.9716477E0,0E0,2.4276357E0,0E0,0E0,0E0,1.2940109E0,1.171505E0,1.4636385E0,2.7582781E0,2.7065737E0,2.4497457E0,0E0,0E0,0E0,5.7528496E-1,0E0,0E0,0E0,1.384718E0,1.1474245E0,1.8533221E0,1.811604E0,2.1655054E0,3.536201E0,8.78397E-1,3.9123595E0,0E0,0E0,0E0,0E0,0E0,0E0,0E0,0E0,0E0,0E0,0E0,0E0,0E0,0E0,0E0,0E0,0E0,0E0,0E0,0E0,0E0,0E0,0E0,0E0,0E0,0E0,0E0,0E0,0E0,0E0,0E0,0E0,0E0,0E0,0E0,0E0,0E0,0E0],"parents":[2147483647,0,0,1,1,2,2,3,3,4,4,5,5,6,6,7,7,8,8,9,9,10,10,11,11,12,12,13,13,14,14,15,15,16,16,17,17,18,18,19,19,20,20,21,21,23,23,24,24,25,25,26,26,27,27,28,28,29,29,30,30,32,32,33,33,34,34,36,36,40,40,41,41,42,42,43,43,44,44,45,45,49,49,53,53,54,54,55,55,56,56,57,57,58,58,59,59,60,60],"right_children":[2,4,6,8,10,12,14,16,18,20,22,24,26,28,30,32,34,36,38,40,42,44,-1,46,48,50,52,54,56,58,60,-1,62,64,66,-1,68,-1,-1,-1,70,72,74,76,78,80,-1,-1,-1,82,-1,-1,-1,84,86,88,90,92,94,96,98,-1,-1,-1,-1,-1,-1,-1,-1,-1,-1,-1,-1,-1,-1,-1,-1,-1,-1,-1,-1,-1,-1,-1,-1,-1,-1,-1,-1,-1,-1,-1,-1,-1,-1,-1,-1,-1,-1],"split_conditions":[4.595925E-1,-6.305209E-2,-4.8190963E-1,2.0700476E-1,-6.0456866E-1,-3.7140995E-1,4.69794E-1,-1.1634775E0,2.0701966E0,-1.4871593E0,2.0683324E0,-5.090826E-1,7.243727E-1,8.5281086E-1,1.253933E0,-5.3496164E-1,-6.9967814E-2,-4.725271E-1,7.4288327E-1,2.0337096E-1,4.7494403E-1,4.110153E-1,-8.6013384E-2,-1.0314662E0,-5.6942683E-1,-9.1024184E-1,6.186746E-1,1.2787309E0,4.7494403E-1,1.2379971E-2,-9.1024184E-1,1.0560788E-1,-3.1498984E-1,-7.674437E-1,-3.1498984E-1,-3.8608503E-2,1.5467011E0,-6.390217E-2,-1.6522154E-2,-7.865445E-2,-3.1498984E-1,3.1904656E-1,-5.064947E-1,2.0701966E0,1.2321033E0,2.3130536E0,-2.054423E-2,2.2354667E-1,2.0518925E-2,4.69794E-1,-2.4873806E-2,1.0391755E-2,-7.533863E-2,-3.1498984E-1,-1.5842168E-1,1.2421608E0,3.1904656E-1,1.2127253E0,-3.7140995E-1,-4.725271E-1,4.46614E0,-4.172134E-2,3.804934E-3,-3.6185384E-2,-7.908356E-2,-7.938834E-2,5.001269E-2,1.0409486E-1,-6.6167167E-3,8.463936E-2,-8.948143E-3,7.11981E-2,1.452903E-1,8.609971E-2,4.007474E-3,-8.8151954E-2,1.2607812E-2,-2.4873395E-3,6.0989976E-2,1.4155635E-1,3.950992E-3,2.3974247E-2,1.033084E-1,1.0884897E-1,5.523132E-2,3.3654965E-2,-4.3389093E-2,-5.1888566E-2,2.488758E-2,1.8555693E-2,1.437035E-1,-8.356841E-2,1.0479691E-2,8.989316E-2,-2.8492285E-2,1.0982219E-1,2.0314595E-2,-2.1629065E-2,7.435681E-2],"split_indices":[0,4,8,3,12,10,4,10,9,12,4,8,0,12,0,8,0,5,3,4,3,12,0,10,10,12,10,10,3,8,12,0,8,10,8,0,3,0,0,0,8,8,8,9,5,0,0,0,0,4,0,0,0,8,8,12,8,10,10,5,4,0,0,0,0,0,0,0,0,0,0,0,0,0,0,0,0,0,0,0,0,0,0,0,0,0,0,0,0,0,0,0,0,0,0,0,0,0,0],"split_type":[0,0,0,0,0,0,0,0,0,0,0,0,0,0,0,0,0,0,0,0,0,0,0,0,0,0,0,0,0,0,0,0,0,0,0,0,0,0,0,0,0,0,0,0,0,0,0,0,0,0,0,0,0,0,0,0,0,0,0,0,0,0,0,0,0,0,0,0,0,0,0,0,0,0,0,0,0,0,0,0,0,0,0,0,0,0,0,0,0,0,0,0,0,0,0,0,0,0,0],"sum_hessian":[3.407714E2,2.229308E2,1.178406E2,1.4368863E2,7.9242165E1,1.7962418E1,9.987818E1,1.2949586E2,1.4192763E1,3.5421993E1,4.3820168E1,9.676751E0,8.285666E0,4.8634842E1,5.1243343E1,3.1410904E1,9.808497E1,1.1506738E1,2.6860259E0,6.4386764E0,2.8983318E1,4.101404E1,2.8061264E0,6.2485695E0,3.4281812E0,5.615496E0,2.6701703E0,3.3288155E1,1.5346689E1,2.011735E1,3.1125994E1,2.2552094E0,2.9155693E1,8.5765656E1,1.2319312E1,1.5007567E0,1.0005981E1,1.4871411E0,1.1988847E0,1.8748858E0,4.5637903E0,1.7237665E1,1.1745653E1,9.595277E0,3.1418766E1,5.0190353E0,1.2295343E0,2.3568413E0,1.07134E0,4.3669195E0,1.2485769E0,1.2869369E0,1.3832334E0,2.7165829E1,6.122324E0,1.0976867E1,4.369823E0,1.1177425E1,8.939925E0,6.7784743E0,2.4347519E1,1.2924851E1,1.6230843E1,1.3549678E1,7.221597E1,6.1382976E0,6.181015E0,7.579857E0,2.4261243E0,1.8725699E0,2.6912203E0,1.322102E1,4.0166464E0,1.8199115E0,9.925741E0,5.0854764E0,4.509801E0,2.2967558E1,8.451208E0,3.0259295E0,1.993106E0,2.5573466E0,1.8095728E0,1.01129675E1,1.705286E1,3.9405065E0,2.1818175E0,6.222857E0,4.7540092E0,2.5445697E0,1.8252531E0,8.109527E0,3.067898E0,3.011768E0,5.928157E0,4.767446E0,2.0110283E0,2.0025517E1,4.322003E0],"tree_param":{"num_deleted":"0","num_feature":"14","num_nodes":"99","size_leaf_vector":"1"}},{"base_weights":[4.0463198E-2,-2.0680428E-1,3.0009207E-1,-3.9094964E-1,3.0266738E-1,1.6192193E-1,6.485141E-1,-2.56556E-2,-6.770208E-1,1.1107529E0,1.699543E-1,-6.5971464E-1,1.9758908E-1,6.968061E-1,-6.421373E-2,-8.511207E-2,1.3837206E-1,-9.450891E-2,-6.096874E-1,1.2987305E0,1.7031085E-2,4.0725112E-1,-3.891094E-1,-7.9766154E-2,-4.754304E-3,1.0608587E-2,3.7357712E-1,7.411676E-1,-5.577723E-2,-3.5514787E-1,1.4413159E-1,-3.1698987E-1,-7.8849715E-1,3.376637E-2,1.4866738E-1,5.598663E-2,8.393194E-1,-8.0136347E-1,5.5530913E-2,-1.032248E-1,7.315456E-1,5.127993E-1,-1.863243E-1,8.3497894E-1,1.7215402E-1,-5.3498365E-2,3.9581366E-2,3.84729E-2,-2.4258358E-2,-5.8427747E-2,3.661447E-2,-8.490187E-2,-2.4958758E-2,-3.9056223E-2,4.7815483E-2,9.458408E-2,-1.9012658E-2,-9.124678E-2,-2.4752593E-2,7.326336E-2,-3.477893E-2,1.8566078E-2,-3.1948444E-2,-6.485998E-3,1.0979142E-1,-7.645747E-2,5.9323754E-2,-3.311295E-2,5.4915905E-2,1.0066205E-1,4.889598E-2,1.1402124E-1,-3.8984086E-2],"categories":[],"categories_nodes":[],"categories_segments":[],"categories_sizes":[],"default_left":[0,0,0,0,0,0,0,0,0,0,0,0,0,0,0,0,0,0,0,0,0,0,0,0,0,0,0,0,0,0,0,0,0,0,0,0,0,0,0,0,0,0,0,0,0,0,0,0,0,0,0,0,0,0,0,0,0,0,0,0,0,0,0,0,0,0,0,0,0,0,0,0,0],"id":15,"left_children":[1,3,5,7,9,11,13,15,17,19,21,23,25,27,-1,29,-1,-1,31,33,-1,35,37,-1,-1,39,41,43,-1,45,47,49,51,-1,-1,53,55,57,59,61,63,65,67,69,71,-1,-1,-1,-1,-1,-1,-1,-1,-1,-1,-1,-1,-1,-1,-1,-1,-1,-1,-1,-1,-1,-1,-1,-1,-1,-1,-1,-1],"loss_changes":[2.1247635E1,1.6031378E1,7.6643896E0,1.3047588E1,4.700975E0,3.555949E0,3.2829819E0,4.8060246E0,6.886482E-1,8.83903E-1,5.5106225E0,3.9222312E-1,3.7078447E0,2.880724E0,0E0,3.4327183E0,0E0,0E0,2.8287964E0,4.1177177E-1,0E0,4.325635E0,2.341835E0,0E0,0E0,4.6483335E0,4.6228027E0,2.1648216E0,0E0,3.6379495E0,2.908383E0,4.5926247E0,9.5719147E-1,0E0,0E0,3.3845658E0,1.5887127E0,1.7829895E-1,2.1568108E0,3.120478E0,2.324325E0,5.260131E0,1.4917216E0,1.6973877E0,4.459927E0,0E0,0E0,0E0,0E0,0E0,0E0,0E0,0E0,0E0,0E0,0E0,0E0,0E0,0E0,0E0,0E0,0E0,0E0,0E0,0E0,0E0,0E0,0E0,0E0,0E0,0E0,0E0,0E0],"parents":[2147483647,0,0,1,1,2,2,3,3,4,4,5,5,6,6,7,7,8,8,9,9,10,10,11,11,12,12,13,13,15,15,18,18,19,19,21,21,22,22,25,25,26,26,27,27,29,29,30,30,31,31,32,32,35,35,36,36,37,37,38,38,39,39,40,40,41,41,42,42,43,43,44,44],"right_children":[2,4,6,8,10,12,14,16,18,20,22,24,26,28,-1,30,-1,-1,32,34,-1,36,38,-1,-1,40,42,44,-1,46,48,50,52,-1,-1,54,56,58,60,62,64,66,68,70,72,-1,-1,-1,-1,-1,-1,-1,-1,-1,-1,-1,-1,-1,-1,-1,-1,-1,-1,-1,-1,-1,-1,-1,-1,-1,-1,-1,-1],"split_conditions":[-6.559105E-2,-6.305209E-2,1.8835743E-1,-4.0838194E-1,-5.064947E-1,-1.3302017E0,2.0683324E0,7.4288327E-1,-1.3302017E0,1.5354862E0,7.7948076E-1,2.3266923E0,-1.4210588E-1,1.7218266E0,-6.421373E-2,1.0327497E0,1.3837206E-1,-9.450891E-2,-8.1515884E-1,4.69794E-1,1.7031085E-2,7.362171E-1,2.0052816E-1,-7.9766154E-2,-4.754304E-3,4.1803985E0,-2.114737E-1,2.0701966E0,-5.577723E-2,3.9927158E-1,1.3449477E0,6.567223E-1,2.0701966E0,3.376637E-2,1.4866738E-1,3.9044625E-1,2.0609217E0,1.3754994E0,7.320692E-1,2.0337096E-1,3.9581544E0,-5.427254E-1,1.7920293E0,9.2299837E-1,-1.2072101E0,-5.3498365E-2,3.9581366E-2,3.84729E-2,-2.4258358E-2,-5.8427747E-2,3.661447E-2,-8.490187E-2,-2.4958758E-2,-3.9056223E-2,4.7815483E-2,9.458408E-2,-1.9012658E-2,-9.124678E-2,-2.4752593E-2,7.326336E-2,-3.477893E-2,1.8566078E-2,-3.1948444E-2,-6.485998E-3,1.0979142E-1,-7.645747E-2,5.9323754E-2,-3.311295E-2,5.4915905E-2,1.0066205E-1,4.889598E-2,1.1402124E-1,-3.8984086E-2],"split_indices":[2,4,8,11,8,13,4,3,13,4,13,1,11,11,0,13,0,0,13,4,0,4,1,0,0,2,8,9,0,8,13,11,9,0,0,11,1,13,1,4,3,8,2,11,11,0,0,0,0,0,0,0,0,0,0,0,0,0,0,0,0,0,0,0,0,0,0,0,0,0,0,0,0],"split_type":[0,0,0,0,0,0,0,0,0,0,0,0,0,0,0,0,0,0,0,0,0,0,0,0,0,0,0,0,0,0,0,0,0,0,0,0,0,0,0,0,0,0,0,0,0,0,0,0,0,0,0,0,0,0,0,0,0,0,0,0,0,0,0,0,0,0,0,0,0,0,0,0,0],"sum_hessian":[3.2900482E2,1.6861826E2,1.6038658E2,1.2402341E2,4.459485E1,1.1589287E2,4.449371E1,5.4948048E1,6.9075356E1,5.251156E0,3.9343693E1,4.093673E0,1.11799194E2,4.3332462E1,1.1612477E0,5.3625397E1,1.322651E0,1.125016E1,5.7825195E1,4.05888E0,1.1922762E0,2.7810825E1,1.1532867E1,3.093565E0,1.000108E0,5.4720764E1,5.7078426E1,4.224782E1,1.0846411E0,2.4369875E1,2.9255522E1,2.2980574E1,3.4844624E1,1.1213535E0,2.937526E0,1.5962859E1,1.1847966E1,5.568078E0,5.964789E0,4.7998753E1,6.7220135E0,4.5779305E1,1.1299124E1,3.586712E1,6.3807015E0,1.98935E1,4.4763746E0,1.8038122E1,1.1217399E1,1.6621752E1,6.3588214E0,3.0809196E1,4.0354276E0,7.793812E0,8.169047E0,1.0810562E1,1.0374033E0,4.098374E0,1.4697043E0,1.9218462E0,4.042943E0,2.0609503E1,2.738925E1,2.377283E0,4.3447304E0,2.2081597E0,4.3571144E1,9.899789E0,1.3993343E0,2.2698475E1,1.3168645E1,1.9657513E0,4.4149504E0],"tree_param":{"num_deleted":"0","num_feature":"14","num_nodes":"73","size_leaf_vector":"1"}},{"base_weights":[1.4582007E-2,-2.1869093E-1,2.506773E-1,-4.2050022E-1,3.7537056E-1,8.4271945E-2,5.867802E-1,-5.056625E-1,5.573482E-1,-7.97508E-2,4.8772347E-1,1.5876278E-1,-2.787493E-1,6.5379274E-1,-7.2075635E-2,-1.7268647E-1,-6.865482E-1,8.8412184E-1,-3.1139607E-2,6.875117E-1,-7.38495E-2,-2.349626E-1,2.4731582E-1,2.3817414E-1,-7.691072E-1,7.120938E-1,-7.5429045E-2,-3.367028E-1,1.0075027E-1,-7.9891735E-1,-1.2146384E-1,1.19268276E-1,3.1072265E-1,5.5877423E-1,1.828152E-1,-7.4506754E-1,6.048739E-1,7.859504E-2,-8.9652014E-1,6.2636274E-1,1.4888082E-1,-5.0107247E-1,5.222186E-1,-1.0164191E-1,7.194049E-2,7.708199E-1,1.5808478E-1,-1.6880768E-3,-5.8009844E-2,3.5366904E-2,-6.1164238E-2,-4.2085692E-2,-8.421122E-2,1.8306356E-2,-8.4727146E-2,6.592349E-2,-1.6305227E-2,1.9461237E-2,7.866011E-2,1.4112678E-2,-9.79208E-2,1.0336991E-1,1.7080525E-2,4.7161713E-2,-2.7775144E-2,-1.0520513E-1,-8.391685E-3,9.013699E-2,-6.901949E-2,-6.265502E-3,5.422589E-2,-7.966244E-3,-6.560942E-2,6.6994443E-3,1.2141923E-1,5.2799713E-3,8.089692E-2,1.0986217E-1,-4.239654E-2],"categories":[],"categories_nodes":[],"categories_segments":[],"categories_sizes":[],"default_left":[0,0,0,0,0,0,0,0,0,0,0,0,0,0,0,0,0,0,0,0,0,0,0,0,0,0,0,0,0,0,0,0,0,0,0,0,0,0,0,0,0,0,0,0,0,0,0,0,0,0,0,0,0,0,0,0,0,0,0,0,0,0,0,0,0,0,0,0,0,0,0,0,0,0,0,0,0,0,0],"id":16,"left_children":[1,3,5,7,9,11,13,15,17,-1,19,21,23,25,-1,27,29,31,-1,33,35,37,39,41,43,45,-1,47,49,51,53,-1,55,57,-1,59,61,63,65,67,69,71,73,-1,-1,75,77,-1,-1,-1,-1,-1,-1,-1,-1,-1,-1,-1,-1,-1,-1,-1,-1,-1,-1,-1,-1,-1,-1,-1,-1,-1,-1,-1,-1,-1,-1,-1,-1],"loss_changes":[1.8105515E1,1.998649E1,9.086905E0,1.0601936E1,5.9851665E0,3.0304224E0,5.196413E0,6.7792244E0,3.2288253E0,0E0,4.4685354E0,3.274936E0,5.0409155E0,4.791382E0,0E0,1.9018239E0,4.593769E0,1.0131135E0,0E0,3.2574883E0,5.5692472E0,3.6909955E0,2.7353282E0,2.3809886E0,4.4387493E0,1.5138836E0,0E0,2.0346823E0,3.168623E0,6.489334E-1,3.1241014E0,0E0,7.825595E-1,2.1388407E0,0E0,1.4032948E0,9.660461E-1,1.9181539E0,6.3122606E-1,6.167747E0,5.1510444E0,1.6409558E-1,2.3697164E0,0E0,0E0,1.195406E0,3.7923717E0,0E0,0E0,0E0,0E0,0E0,0E0,0E0,0E0,0E0,0E0,0E0,0E0,0E0,0E0,0E0,0E0,0E0,0E0,0E0,0E0,0E0,0E0,0E0,0E0,0E0,0E0,0E0,0E0,0E0,0E0,0E0,0E0],"parents":[2147483647,0,0,1,1,2,2,3,3,4,4,5,5,6,6,7,7,8,8,10,10,11,11,12,12,13,13,15,15,16,16,17,17,19,19,20,20,21,21,22,22,23,23,24,24,25,25,27,27,28,28,29,29,30,30,32,32,33,33,35,35,36,36,37,37,38,38,39,39,40,40,41,41,42,42,45,45,46,46],"right_children":[2,4,6,8,10,12,14,16,18,-1,20,22,24,26,-1,28,30,32,-1,34,36,38,40,42,44,46,-1,48,50,52,54,-1,56,58,-1,60,62,64,66,68,70,72,74,-1,-1,76,78,-1,-1,-1,-1,-1,-1,-1,-1,-1,-1,-1,-1,-1,-1,-1,-1,-1,-1,-1,-1,-1,-1,-1,-1,-1,-1,-1,-1,-1,-1,-1,-1],"split_conditions":[-6.559105E-2,-6.9967814E-2,-1.5971562E-1,7.362171E-1,-9.485795E-1,1.1711909E0,1.5427535E0,-7.674437E-1,-1.8702097E-1,-7.97508E-2,7.320692E-1,1.9978328E-1,2.0337096E-1,2.0683324E0,-7.2075635E-2,1.2379971E-2,-6.305209E-2,1.5354862E0,-3.1139607E-2,7.64166E-1,4.69794E-1,4.595925E-1,-5.064947E-1,1.2421608E0,5.7726445E0,2.0701966E0,-7.5429045E-2,-4.4567898E-1,7.64166E-1,-5.090826E-1,-3.5373583E-1,1.19268276E-1,-4.2238784E-1,4.595925E-1,1.828152E-1,-4.4567898E-1,1.0026401E0,-5.155526E-1,5.68704E-1,1.7951512E0,1.7951512E0,-4.3015155E-1,-3.8745114E-1,-1.0164191E-1,7.194049E-2,-1.0314662E0,-1.2294831E0,-1.6880768E-3,-5.8009844E-2,3.5366904E-2,-6.1164238E-2,-4.2085692E-2,-8.421122E-2,1.8306356E-2,-8.4727146E-2,6.592349E-2,-1.6305227E-2,1.9461237E-2,7.866011E-2,1.4112678E-2,-9.79208E-2,1.0336991E-1,1.7080525E-2,4.7161713E-2,-2.7775144E-2,-1.0520513E-1,-8.391685E-3,9.013699E-2,-6.901949E-2,-6.265502E-3,5.422589E-2,-7.966244E-3,-6.560942E-2,6.6994443E-3,1.2141923E-1,5.2799713E-3,8.089692E-2,1.0986217E-1,-4.239654E-2],"split_indices":[2,0,8,4,13,12,10,10,13,0,1,2,4,4,0,8,4,4,0,8,4,0,8,12,2,9,0,8,8,8,13,0,8,0,0,8,4,13,12,1,1,8,8,0,0,10,10,0,0,0,0,0,0,0,0,0,0,0,0,0,0,0,0,0,0,0,0,0,0,0,0,0,0,0,0,0,0,0,0],"split_type":[0,0,0,0,0,0,0,0,0,0,0,0,0,0,0,0,0,0,0,0,0,0,0,0,0,0,0,0,0,0,0,0,0,0,0,0,0,0,0,0,0,0,0,0,0,0,0,0,0,0,0,0,0,0,0,0,0,0,0,0,0,0,0,0,0,0,0,0,0,0,0,0,0,0,0,0,0,0,0],"sum_hessian":[3.2674963E2,1.6439429E2,1.6235535E2,1.22926834E2,4.146745E1,1.0942802E2,5.2927338E1,1.1352284E2,9.40399E0,3.09192E0,3.837553E1,9.126366E1,1.816436E1,5.082261E1,2.1047277E0,4.0649517E1,7.287332E1,6.820713E0,2.583277E0,2.8140024E1,1.0235506E1,1.6453701E1,7.480995E1,9.093012E0,9.071347E0,4.9276615E1,1.5459938E0,2.526398E1,1.5385537E1,6.044067E1,1.2432654E1,3.7322643E0,3.088449E0,2.6624905E1,1.5151198E0,5.09706E0,5.1384454E0,1.1760695E1,4.6930056E0,1.4316753E1,6.0493202E1,2.3119435E0,6.7810683E0,8.050876E0,1.0204718E0,4.4199974E1,5.07664E0,1.1380005E1,1.3883976E1,1.1726027E1,3.6595104E0,7.2990866E0,5.3141582E1,9.284804E0,3.1478498E0,1.5539215E0,1.5345275E0,1.0960187E1,1.5664719E1,1.1482651E0,3.948795E0,1.8899285E0,3.248517E0,5.438728E0,6.3219676E0,3.6917434E0,1.0012622E0,1.2103823E1,2.2129302E0,3.988571E1,2.0607489E1,1.0288912E0,1.2830524E0,4.75183E0,2.0292382E0,2.3501978E0,4.1849777E1,1.6014111E0,3.4752288E0],"tree_param":{"num_deleted":"0","num_feature":"14","num_nodes":"79","size_leaf_vector":"1"}},{"base_weights":[-3.1486726E-3,-2.279335E-1,2.1301705E-1,-3.4795222E-1,4.0944692E-1,3.249456E-1,2.0161785E-2,-2.3571156E-1,-7.094036E-1,2.8317147E-1,1.419897E-1,3.7514725E-1,-8.26497E-2,-3.5959077E-1,2.5603732E-1,-3.9065492E-1,3.872675E-1,-7.6974106E-1,8.464333E-2,3.9943695E-1,-6.44213E-2,-7.156857E-2,4.0561882E-1,-6.8275434E-1,4.8106256E-1,8.3666867E-1,1.071313E-1,-2.2688372E-1,-7.391224E-1,9.145342E-2,8.9321524E-1,-9.69085E-2,-5.0449586E-1,3.3214044E-2,-2.0212775E-2,1.7345534E-1,1.0116502E0,4.715331E-1,-1.2694643E-1,-7.701936E-1,2.666626E-2,-6.84741E-2,9.3962795E-1,-1.9414961E-2,1.0705696E0,6.2610984E-1,-1.0833233E-2,-2.7205253E-2,8.793983E-2,7.1520926E-3,-8.321967E-2,8.6634815E-2,-1.8110631E-2,1.0092683E-1,2.3360781E-2,-2.3127932E-3,-6.832709E-2,4.644905E-2,-2.9466284E-2,1.3442422E-1,4.8790004E-2,1.9222744E-2,5.9902575E-2,-4.8802923E-2,3.8858745E-2,-1.3223479E-2,-8.126096E-2,1.7732817E-1,-1.6605625E-2,1.3189994E-1,2.9334595E-2,8.557259E-2,-2.0915292E-2,-2.6602989E-2,3.6709193E-2],"categories":[],"categories_nodes":[],"categories_segments":[],"categories_sizes":[],"default_left":[0,0,0,0,0,0,0,0,0,0,0,0,0,0,0,0,0,0,0,0,0,0,0,0,0,0,0,0,0,0,0,0,0,0,0,0,0,0,0,0,0,0,0,0,0,0,0,0,0,0,0,0,0,0,0,0,0,0,0,0,0,0,0,0,0,0,0,0,0,0,0,0,0,0,0],"id":17,"left_children":[1,3,5,7,9,11,13,15,17,19,-1,21,-1,23,25,27,29,31,33,35,-1,-1,37,39,41,43,45,47,49,51,53,-1,55,-1,-1,57,59,61,63,65,-1,-1,67,-1,69,71,73,-1,-1,-1,-1,-1,-1,-1,-1,-1,-1,-1,-1,-1,-1,-1,-1,-1,-1,-1,-1,-1,-1,-1,-1,-1,-1,-1,-1],"loss_changes":[1.5852685E1,1.2376658E1,3.5836444E0,5.314829E0,2.8901372E0,6.3896294E0,5.658716E0,1.0248587E1,1.5753307E0,2.8650036E0,0E0,3.6630554E0,0E0,6.9100876E0,3.2752695E0,4.641464E0,3.1117866E0,1.0652885E0,2.890697E-1,2.8831265E0,0E0,0E0,3.5473957E0,1.6924448E0,4.55335E0,2.0877519E0,1.9733224E0,3.1759412E0,2.058895E0,3.2360272E0,3.5812998E-1,0E0,1.2490551E0,0E0,0E0,2.5012152E0,3.463688E-1,3.0405483E0,2.3731647E0,3.433447E-1,0E0,0E0,5.5214276E0,0E0,8.697562E-1,1.32322E0,2.716707E0,0E0,0E0,0E0,0E0,0E0,0E0,0E0,0E0,0E0,0E0,0E0,0E0,0E0,0E0,0E0,0E0,0E0,0E0,0E0,0E0,0E0,0E0,0E0,0E0,0E0,0E0,0E0,0E0],"parents":[2147483647,0,0,1,1,2,2,3,3,4,4,5,5,6,6,7,7,8,8,9,9,11,11,13,13,14,14,15,15,16,16,17,17,18,18,19,19,22,22,23,23,24,24,25,25,26,26,27,27,28,28,29,29,30,30,32,32,35,35,36,36,37,37,38,38,39,39,42,42,44,44,45,45,46,46],"right_children":[2,4,6,8,10,12,14,16,18,20,-1,22,-1,24,26,28,30,32,34,36,-1,-1,38,40,42,44,46,48,50,52,54,-1,56,-1,-1,58,60,62,64,66,-1,-1,68,-1,70,72,74,-1,-1,-1,-1,-1,-1,-1,-1,-1,-1,-1,-1,-1,-1,-1,-1,-1,-1,-1,-1,-1,-1,-1,-1,-1,-1,-1,-1],"split_conditions":[-6.5242365E-2,4.595925E-1,2.0701966E0,5.526689E-1,3.9017346E0,1.5427535E0,7.7948076E-1,3.5465205E-1,1.9481234E-1,2.0482733E0,1.419897E-1,-1.3302017E0,-8.26497E-2,1.7951512E0,4.595925E-1,-5.034212E-1,3.5671104E-2,1.1467197E0,-6.0934514E-2,7.3053193E-1,-6.44213E-2,-7.156857E-2,1.5467011E0,2.8535266E0,-4.3791527E-1,-6.0934514E-2,-5.427254E-1,7.3053193E-1,-5.323738E-1,-5.064947E-1,-6.559105E-2,-9.69085E-2,-4.3791527E-1,3.3214044E-2,-2.0212775E-2,7.7948076E-1,-4.725271E-1,-4.0297857E-1,-4.138177E-2,-1.3806258E0,2.666626E-2,-6.84741E-2,-3.8745114E-1,-1.9414961E-2,1.3447366E0,2.3266923E0,2.3266923E0,-2.7205253E-2,8.793983E-2,7.1520926E-3,-8.321967E-2,8.6634815E-2,-1.8110631E-2,1.0092683E-1,2.3360781E-2,-2.3127932E-3,-6.832709E-2,4.644905E-2,-2.9466284E-2,1.3442422E-1,4.8790004E-2,1.9222744E-2,5.9902575E-2,-4.8802923E-2,3.8858745E-2,-1.3223479E-2,-8.126096E-2,1.7732817E-1,-1.6605625E-2,1.3189994E-1,2.9334595E-2,8.557259E-2,-2.0915292E-2,-2.6602989E-2,3.6709193E-2],"split_indices":[1,0,9,10,0,10,13,10,0,0,0,13,0,1,0,10,8,10,3,2,0,0,3,2,8,3,8,2,8,8,2,0,8,0,0,13,5,8,10,13,0,0,8,0,10,1,1,0,0,0,0,0,0,0,0,0,0,0,0,0,0,0,0,0,0,0,0,0,0,0,0,0,0,0,0],"split_type":[0,0,0,0,0,0,0,0,0,0,0,0,0,0,0,0,0,0,0,0,0,0,0,0,0,0,0,0,0,0,0,0,0,0,0,0,0,0,0,0,0,0,0,0,0,0,0,0,0,0,0,0,0,0,0,0,0,0,0,0,0,0,0,0,0,0,0,0,0,0,0,0,0,0,0],"sum_hessian":[3.2424963E2,1.5892914E2,1.6532051E2,1.3412709E2,2.4802038E1,1.0417496E2,6.1145557E1,1.0360653E2,3.052057E1,2.3184877E1,1.61716E0,1.0046881E2,3.7061393E0,2.3226728E1,3.791883E1,8.326926E1,2.033727E1,2.8393625E1,2.1269445E0,2.1107885E1,2.0769925E0,2.1191618E0,9.8349655E1,1.6912905E1,6.3138223E0,6.796882E0,3.1121946E1,5.7769905E1,2.5499352E1,1.3578842E1,6.758429E0,1.4695637E1,1.36979885E1,1.0567293E0,1.0702152E0,1.6354425E1,4.7534595E0,8.761977E1,1.0729884E1,1.5659473E1,1.2534312E0,1.6431764E0,4.670646E0,1.2884668E0,5.5084157E0,4.966128E0,2.6155819E1,5.6228226E1,1.541679E0,2.6500375E0,2.2849314E1,2.9664843E0,1.0612358E1,5.296453E0,1.4619763E0,4.0154347E0,9.682554E0,1.0089439E1,6.2649865E0,1.9491428E0,2.8043165E0,2.8246412E1,5.9373356E1,6.341567E0,4.388317E0,1.2329423E0,1.4426532E1,2.318658E0,2.3519878E0,3.645964E0,1.8624516E0,3.8760827E0,1.0900451E0,1.5789754E1,1.0366066E1],"tree_param":{"num_deleted":"0","num_feature":"14","num_nodes":"75","size_leaf_vector":"1"}},{"base_weights":[-2.6641576E-2,-2.2108255E-1,2.3420213E-1,-3.3482808E-1,3.6176038E-1,1.9792391E-1,9.2082685E-1,-4.4279504E-1,-7.978503E-2,4.4365183E-1,-4.055967E-1,-6.3113356E-1,2.2726075E-1,1.3318644E0,-6.484651E-2,-1.9559284E-1,-6.1250114E-1,2.984633E-1,-3.993473E-1,7.531198E-1,1.13540396E-1,7.299963E-3,-6.975374E-2,-2.4257882E-2,-7.382208E-2,2.956478E-1,-1.0748051E-1,1.6094997E0,1.8455967E-2,-2.8418693E-1,9.876475E-2,-6.9001055E-1,4.18377E-2,4.979492E-1,-4.8345393E-1,-2.4041459E-1,-6.890842E-1,1.1059897E0,-7.77592E-2,-5.2430876E-2,1.1218809E-1,5.129101E-1,2.2509575E-1,-5.775745E-1,9.646238E-2,3.0928014E-2,1.9375809E-1,-1.0999034E-2,-5.147618E-2,-7.268577E-2,5.2748192E-2,3.7331354E-2,-6.8069644E-2,-8.793853E-3,8.1973284E-2,-4.4963863E-3,-7.42753E-2,3.7255734E-2,-3.2964084E-2,-9.274881E-2,-6.194963E-3,1.2988491E-1,-2.7012656E-2,-3.4986578E-2,2.01322E-2,-3.385546E-2,7.180101E-2,-8.561451E-2,2.8264595E-2,-7.541988E-2,-2.0882294E-2,6.1447587E-2,-1.048883E-2],"categories":[],"categories_nodes":[],"categories_segments":[],"categories_sizes":[],"default_left":[0,0,0,0,0,0,0,0,0,0,0,0,0,0,0,0,0,0,0,0,0,0,0,0,0,0,0,0,0,0,0,0,0,0,0,0,0,0,0,0,0,0,0,0,0,0,0,0,0,0,0,0,0,0,0,0,0,0,0,0,0,0,0,0,0,0,0,0,0,0,0,0,0],"id":18,"left_children":[1,3,5,7,9,11,13,15,17,19,21,23,25,27,-1,29,31,33,35,37,39,-1,-1,-1,-1,41,43,45,-1,47,-1,49,51,53,55,57,59,61,-1,63,-1,65,67,69,71,-1,-1,-1,-1,-1,-1,-1,-1,-1,-1,-1,-1,-1,-1,-1,-1,-1,-1,-1,-1,-1,-1,-1,-1,-1,-1,-1,-1],"loss_changes":[1.6472956E1,1.2452799E1,3.2741838E0,4.2646103E0,2.1188173E0,3.3799496E0,5.1788015E0,4.4735756E0,5.8805094E0,2.8113608E0,5.396124E-1,2.1172285E-2,2.9907317E0,1.4958649E0,0E0,5.1068354E0,3.2977676E0,3.7347121E0,1.0437527E0,8.669577E0,2.5521097E0,0E0,0E0,0E0,0E0,1.5338192E0,2.2282495E0,1.2787333E0,0E0,1.694926E0,0E0,2.971178E0,2.1148114E0,3.5296006E0,5.4198575E-1,1.1344298E0,1.2534075E0,3.5787573E0,0E0,1.1080561E0,0E0,4.7125483E0,5.406931E0,2.9839015E-1,1.8022503E0,0E0,0E0,0E0,0E0,0E0,0E0,0E0,0E0,0E0,0E0,0E0,0E0,0E0,0E0,0E0,0E0,0E0,0E0,0E0,0E0,0E0,0E0,0E0,0E0,0E0,0E0,0E0,0E0],"parents":[2147483647,0,0,1,1,2,2,3,3,4,4,5,5,6,6,7,7,8,8,9,9,10,10,11,11,12,12,13,13,15,15,16,16,17,17,18,18,19,19,20,20,25,25,26,26,27,27,29,29,31,31,32,32,33,33,34,34,35,35,36,36,37,37,39,39,41,41,42,42,43,43,44,44],"right_children":[2,4,6,8,10,12,14,16,18,20,22,24,26,28,-1,30,32,34,36,38,40,-1,-1,-1,-1,42,44,46,-1,48,-1,50,52,54,56,58,60,62,-1,64,-1,66,68,70,72,-1,-1,-1,-1,-1,-1,-1,-1,-1,-1,-1,-1,-1,-1,-1,-1,-1,-1,-1,-1,-1,-1,-1,-1,-1,-1,-1,-1],"split_conditions":[2.0052816E-1,4.595925E-1,5.5159383E0,-6.305209E-2,1.5467011E0,-1.3302017E0,1.0565578E1,-7.674437E-1,-9.485795E-1,6.344334E-1,1.2321033E0,1.9481234E-1,1.5354862E0,-5.034212E-1,-6.484651E-2,-8.3344936E-1,-6.9967814E-2,2.0701966E0,2.0700476E-1,2.0701966E0,3.9017346E0,7.299963E-3,-6.975374E-2,-2.4257882E-2,-7.382208E-2,-6.9967814E-2,1.2636102E0,6.844791E0,1.8455967E-2,-1.2294831E0,9.876475E-2,7.4288327E-1,2.0701966E0,-1.1729562E0,2.0337096E-1,-3.5373583E-1,1.1467197E0,6.186746E-1,-7.77592E-2,-6.305209E-2,1.1218809E-1,-6.0934514E-2,-8.1515884E-1,1.5187131E0,-1.2954888E0,3.0928014E-2,1.9375809E-1,-1.0999034E-2,-5.147618E-2,-7.268577E-2,5.2748192E-2,3.7331354E-2,-6.8069644E-2,-8.793853E-3,8.1973284E-2,-4.4963863E-3,-7.42753E-2,3.7255734E-2,-3.2964084E-2,-9.274881E-2,-6.194963E-3,1.2988491E-1,-2.7012656E-2,-3.4986578E-2,2.01322E-2,-3.385546E-2,7.180101E-2,-8.561451E-2,2.8264595E-2,-7.541988E-2,-2.0882294E-2,6.1447587E-2,-1.048883E-2],"split_indices":[1,0,1,4,3,13,1,10,13,13,5,0,4,10,0,10,0,9,3,9,0,0,0,0,0,0,1,1,0,10,0,3,9,13,4,13,10,10,0,4,0,3,13,0,10,0,0,0,0,0,0,0,0,0,0,0,0,0,0,0,0,0,0,0,0,0,0,0,0,0,0,0,0],"split_type":[0,0,0,0,0,0,0,0,0,0,0,0,0,0,0,0,0,0,0,0,0,0,0,0,0,0,0,0,0,0,0,0,0,0,0,0,0,0,0,0,0,0,0,0,0,0,0,0,0,0,0,0,0,0,0,0,0,0,0,0,0,0,0,0,0,0,0,0,0,0,0,0,0],"sum_hessian":[3.2276962E2,1.8500993E2,1.3775969E2,1.551558E2,2.9854122E1,1.3206996E2,5.6897383E0,1.08491936E2,4.6663876E1,